tree
version=v3
num_class=1
num_tree_per_iteration=1
label_index=0
max_feature_idx=51
objective=poisson
feature_names=veh_value exposure veh_age agecat max_power driving_history_score e_bill trm_len credit_score high_education_ind veh_body_BUS veh_body_CONVT veh_body_COUPE veh_body_HBACK veh_body_HDTOP veh_body_MCARA veh_body_MIBUS veh_body_PANVN veh_body_RDSTR veh_body_SEDAN veh_body_STNWG veh_body_TRUCK veh_body_UTE gender_F gender_M area_A area_B area_C area_D area_E area_F engine_type_dissel engine_type_electric engine_type_hybrid engine_type_petrol veh_color_black veh_color_blue veh_color_brown veh_color_gray veh_color_green veh_color_red veh_color_silver veh_color_white veh_color_yellow marital_status_M marital_status_S time_of_week_driven_weekday time_of_week_driven_weekend time_driven_12am_-_6_am time_driven_12pm_-_6pm time_driven_6am_-_12pm time_driven_6pm_-_12am
feature_infos=[-1.3083333333333336:19.116666666666671] [-0.87560718553810157:1.4044348096419046] [-1:0.5] [-0.66666666666666663:1] [-1.3125:4.109375] [-2.5714285714285716:0.9285714285714286] [-1:0] [-6:0] [-3.5846260494060682:13.022633588519561] [0:1] none [0:1] [0:1] [0:1] [0:1] [0:1] [0:1] [0:1] none [0:1] [0:1] [0:1] [0:1] [0:1] [0:1] [0:1] [0:1] [0:1] [0:1] [0:1] [0:1] [0:1] [0:1] [0:1] [0:1] [0:1] [0:1] [0:1] [0:1] [0:1] [0:1] [0:1] [0:1] [0:1] [0:1] [0:1] [0:1] [0:1] [0:1] [0:1] [0:1] [0:1]
tree_sizes=3281 3427 3414 3438 3430 3446 3484 3460 3447 3423 3470 3446 3425 3471 3432 3445 3452 3480 3430 3459 3428 3468 3456 3442 3438 3441 3444 3449 3423 3464 3455 3469 3486 3449 3474 3491 3464 3434 3495 3483 3469 3460 3472 3459 3473 3498 3481 3446 3467 3439 3471 3462 3429 3450 3426 3470 3438 3453 3457 3489 3435 3469 3436 3469 3473 3483 3447 3421 3485 3485 3425 3508 3453 3450 3466 3488 3415 3462 3485 3420 3444 3493 3457 3493 3419 3434 3503 3440 3460 3514 3494 3451 3456 3454 3460 3480 3431 3445 3459 3455 3491 3461 3452 3486 3460 3440 3441 3455 3478 3459 3460 3438 3429 3452 3474 3481 3450 3451 3446 3474 3437 3457 3440 3468 3459 3469 3475 3473 3493 3435 3466 3499 3440 3474 3469 3490 3434 3458 3520 3506 3507 3435 3452 3458 3527 3441 3470 3410 3440 3447 3449 3481 3496 3448 3509 3436 3491 3461 3492 3445 3519 3450 3466 3457 3481 3506 3482 3473 3470 3518 3491 3485 3486 3429 3502 3485 3500 3462 3494 3481 3438 3491 3452 3489 3446 3470 3465 3449 3426 3433 3458 3480 3456 3457 3427 3431 3518 3499 3447 3462 3432 3455 3453 3455 3458 3460 3448 3469 3468 3507 3480 3469 3445 3431 3480 3484 3431 3540 3458 3495 3463 3473 3477 3468 3437 3492 3475 3464 3488 3485 3477 3469 3475 3478 3463 3476 3476 3452 3456 3469 3463 3463 3440 3480 3470 3500 3457 3470 3464 3503 3484 3473 3470 3464 3465 3442 3473 3487 3457 3446 3494 3469 3502 3461 3486 3421 3473 3486 3501 3481 3446 3479 3465 3426 3468 3514 3454 3457 3458 3456 3482 3489 3474 3465 3468 3437 3460 3490 3427 3461 3440 3497 3464 3449 3458 3462 3435 3498 3456 3477 3501 3516 3451 3471 3514 3495 3512 3451 3497 3450 3505 3471 3489 3521 3502 3473 3469 3476 3434 3508 3438 3475 3526 3457 3467 3499 3471 3451 3463 3490 3463 3457 3431 3496 3472 3447 3500 3470 3513 3428 3491 3462 3467 3498 3464 3465 3470 3459 3466 3465 3460 3480 3480 3483 3459 3484 3462 3475 3455 3446 3469 3468 3482 3488 3488 3499 3473 3459 3499 3478 3476 3472 3468 3469 3473 3462 3477 3467 3437 3478 3477 3479 3466 3465 3447 3493 3474 3463 3476 3493 3498 3469 3492 3482 3455 3486 3462 3462 3461 3479 3485 3485 3458 3506 3463 3475 3448 3492 3473 3452 3468 3458 3487 3498 3501 3473 3487 3465 3478 3472 3481 3503 3462 3483 3476 3436 3505 3449 3488 3490 3465 3483 3492 3501 3483 3474 3468 3486 3478 3446 3461 3456 3483 3482 3450 3492 3480 3470 3472 3463 3485 3470 3509 3470 3491 3475 3483 3481 3525 3497 3473 3485 3467 3456 3487 3449 3457 3475 3467 3489 3449 3514 3444 3458 3472 3461 3454 3498 3462 3457 3498 3506 3456 3477 3479 3493 3476 3468 3487 3456 3494 3456 3486 3467 3465 3515 3475 3485 3481 3453 3468 3457 3504 3468 3451 3456 3455 3489 3459 3476 3474 3489 3468 3504 3470 3459 3481 3460 3482 3464 3449 3497 3466 3466 3480 3476 3479 3470 3493 3481 3457 3478 3497 3495 3490 3475 3468 3489 3482 3471 3509 3487 3466 3482 3501 3464 3483 3489 3462 3483 3486 3488 3477 3485 3508 3466 3459 3493 3477 3485 3473 3464 3497 3468 3466 3455 3482 3478 3472 3464 3506 3477 3462 3488 3510 3503 3489 3501 3508 3485 3486 3537 3466 3479 3460 3486 3485 3473 3482 3483 3483 3464 3490 3482 3492 3466 3490 3483 3460 3482 3452 3487 3507 3471 3480 3502 3498 3479 3467 3499 3458 3480 3495 3473 3481 3477 3474 3471 3465 3462 3502 3490 3484 3452 3496 3512 3461 3490 3474 3515 3485 3439 3460 3504 3491 3471 3472 3485 3469 3514 3502 3481 3471 3493 3477 3476 3472 3503 3490 3516 3490 3481 3506 3452 3477 3490 3472 3492 3463 3473 3494 3485 3463 3500 3489 3482 3493 3485 3503 3462 3498 3490 3495 3499 3499 3475 3501 3457 3499 3466 3478 3497 3509 3470 3468 3501 3464 3493 3452 3454 3497 3465 3474 3462 3489 3481 3509 3439 3475 3456 3477 3475 3460 3499 3514 3502 3494 3479 3474 3478 3460 3478 3460 3453 3456 3479 3472 3484 3483 3477 3470 3506 3493 3492 3462 3462 3468 3484 3466 3493 3487 3467 3487 3472 3511 3472 3478 3477 3486 3462 3491 3486 3481 3518 3509 3478 3473 3486 3494 3472 3480 3473 3494 3478 3507 3463 3480 3471 3458 3464 3495 3473 3500 3497 3483 3485 3484 3479 3481 3487 3481 3461 3465 3503 3458 3486 3514 3467 3491 3471 3478 3467 3514 3506 3499 3453 3471 3476 3511 3524 3492 3487 3492 3481 3489 3516 3489 3478 3473 3465 3476 3484 3469 3478 3453 3486 3468 3493 3481 3483 3478 3448 3487 3488 3456 3490 3478 3478 3502 3468 3484 3486 3464 3480 3477 3498 3527 3461 3514 3494 3478 3457 3486 3462 3476 3486 3487 3496 3465 3494 3488 3514 3505 3468 3495 3466 3482 3502 3502 3468 3508 3480 3458 3466 3503 3481 3483 3499 3483 3500 3506 3475 3480 3498 3491 3450 3507 3486 3491 3471 3483 3482 3523 3466 3463 3484 3488 3470 3491 3500 3496 3496 3457 3440 3509 3504 3459 3484 3483 3490 3454 3484 3487 3460 3490 3515 3474 3486 3489 3488 3466 3506 3487 3468 3463 3462 3485 3481 3483 3457 3501 3515 3478 3476 3486 3482 3483 3491 3494 3459 3493 3452 3491 3504 3473 3481 3497 3464 3508 3473 3467 3519 3474 3465 3483 3455 3478 3450 3507 3489 3462 3487 3470 3500 3489 3508 3485 3481 3493 3485 3451 3507 3498 3457 3497 3486 3514 3500 3490 3454 3459 3501 3471 3487 3460 3440 3508 3502 3502 3501 3512 3486 3518 3523 3459 3497 3504 3492 3486 3477 3501 3445 3504 3481 3476 3500 3464 3471 3467 3490 3479 3506 3478 3511 3503 3492 3499 3509 3510 3490

Tree=0
num_leaves=31
num_cat=0
split_feature=1 5 8 5 26 0 0 0 22 0 0 8 6 1 3 43 21 0 1 0 3 0 48 8 51 1 29 3 8 1
split_gain=133856 48258.4 64951.4 197567 81950.4 140351 43502.3 195581 34185.8 55988.8 153991 40388.6 148798 31699 26476.2 37391.6 25931.1 23212.8 20462.9 36632.7 104661 178042 35532.7 25726.5 52092 177259 24520 23620.9 20068.5 17036.2
threshold=-0.20567974863820834 -0.1964285714285714 -0.67688560763829708 -0.053571428571428562 1.0000000180025095e-35 0.13749999999999998 2.6458333333333344 2.9291666666666676 1.0000000180025095e-35 0.69583333333333353 1.5125000000000004 2.3506056148681114 -1.0000000180025095e-35 0.13336048504996942 1.0000000180025095e-35 1.0000000180025095e-35 1.0000000180025095e-35 0.14583333333333334 0.38500530405142042 0.22083333333333341 0.83333333333333337 0.5458333333333335 1.0000000180025095e-35 -0.15898299767224294 1.0000000180025095e-35 -0.042169344210688346 1.0000000180025095e-35 -0.49999999999999994 -0.72191788286246561 -0.8443554860177297
decision_type=2 2 2 2 2 2 2 2 2 2 2 2 2 2 2 2 2 2 2 2 2 2 2 2 2 2 2 2 2 2
left_child=6 14 3 -3 28 -6 29 -8 11 13 -11 18 -13 -10 15 -2 -16 -17 23 -20 22 -22 27 24 26 -26 -4 -21 -5 -1
right_child=1 2 8 4 5 -7 7 -9 9 10 -12 12 -14 -15 16 17 -18 -19 19 20 21 -23 -24 -25 25 -27 -28 -29 -30 -31
leaf_value=5.1333054598988799 5.0757041621643619 5.3788244977816921 5.0644631942366329 5.0551058482833424 5.064493528149133 5.4560644573093064 5.434275135089818 5.0367353654621008 5.17335618844203 5.4643157655044403 5.054961563718539 5.3645862217493194 5.0590149369385324 5.0453566391173856 5.0502033978528154 5.2713688871655302 5.1586898239812307 5.1011091573334211 5.072629915261202 5.1795464644153109 5.5148221711508665 5.0607835635377549 5.2340175326136995 5.0538065991500067 5.4485278860343556 5.0395830365166541 5.1700491669330422 5.0790626436116311 5.1584230332676668 5.0462867066060939
leaf_weight=22741.862487792969 686740.185546875 30429.252624511719 260410.34088134766 125881.01348876953 20820.014953613281 16335.704040527344 16015.396118164062 54452.346801757812 30108.944702148438 16656.011962890625 20499.70703125 23062.17041015625 51569.575500488281 54132.038879394531 706599.27673339844 16015.396118164062 22741.862487792969 16015.396118164062 534914.23034667969 25624.6337890625 16656.011962890625 17937.24365234375 17616.935729980469 533632.99865722656 16656.011962890625 29148.020935058594 24023.094177246094 268738.34686279297 22101.246643066406 2097696.5835571289
leaf_count=71 2144 95 813 393 65 51 50 170 94 52 64 72 161 169 2206 50 71 50 1670 80 52 56 55 1666 52 91 75 839 69 6549
internal_value=5.06928 5.08113 5.09061 5.14269 5.10387 5.23665 5.04979 5.12709 5.08483 5.13621 5.23847 5.0814 5.15344 5.09111 5.06701 5.08063 5.05359 5.18624 5.07832 5.08904 5.11437 5.2794 5.09607 5.06738 5.08932 5.18829 5.07338 5.08781 5.07054 5.04722
internal_weight=0 3.60507e+06 2.15695e+06 215567 185138 37155.7 2.19091e+06 70467.7 1.94139e+06 121397 37155.7 1.81999e+06 74631.7 84241 1.44811e+06 718771 729341 32030.8 1.74536e+06 881487 346573 34593.3 311980 863870 330237 45804 284433 294363 147982 2.12044e+06
internal_count=18095 11255 6734 673 578 116 6840 220 6061 379 116 5682 233 263 4521 2244 2277 100 5449 2752 1082 108 974 2697 1031 143 888 919 462 6620
is_linear=0
shrinkage=1


Tree=1
num_leaves=31
num_cat=0
split_feature=1 5 8 33 1 0 5 22 44 8 5 8 6 5 3 43 51 4 5 0 8 8 1 4 1 1 23 3 44 3
split_gain=120854 41248.9 50614.5 140997 65539.7 37961 166377 27065.8 40971.7 55471.8 33713.3 32897.2 97023.4 32117.7 24047.5 29045.7 24636.2 66156.4 21916.2 25054.7 19451.3 124347 25110.5 39600.6 23271.6 22719.6 29115.9 21546.7 17658.7 15305.2
threshold=-0.20567974863820834 -0.1964285714285714 -0.67688560763829708 1.0000000180025095e-35 1.2455144231839703 2.7041666666666675 0.5178571428571429 1.0000000180025095e-35 1.0000000180025095e-35 0.95848561268200938 0.2678571428571429 2.1126014880023063 -1.0000000180025095e-35 0.62500000000000011 1.0000000180025095e-35 1.0000000180025095e-35 1.0000000180025095e-35 0.77343750000000011 -0.053571428571428562 1.4791666666666672 0.045933695342987406 0.023185347958991489 0.095399034152844994 1.7109375000000002 -0.17971209468813992 0.19692275175952051 1.0000000180025095e-35 -0.49999999999999994 1.0000000180025095e-35 0.50000000000000011
decision_type=2 2 2 2 2 2 2 2 2 2 2 2 2 2 2 2 2 2 2 2 2 2 2 2 2 2 2 2 2 2
left_child=5 14 3 4 18 -1 -7 11 -9 10 -10 20 -13 -12 15 -2 -16 -18 -3 -20 21 24 -22 25 -4 26 -24 28 -27 -26
right_child=1 2 7 -5 -6 6 -8 8 9 -11 13 12 -14 -15 16 -17 17 -19 19 -21 22 -23 23 -25 29 27 -28 -29 -30 -31
leaf_value=-0.021379026054384385 0.0060624251253889403 0.091827417598932204 0.11042303664695641 0.31468904354238125 0.202245943468182 -0.03179053414741994 0.32896025880717966 -0.0063199727236043224 -0.039469032983761011 0.26566285405755541 0.21234275049494628 0.19051518346522656 -0.00978653644937778 0.024916637030257163 -0.022881573759515456 0.098031166307394224 -0.0047139020872067261 0.21247099472018924 -0.009197795800715251 0.12013847844534807 -0.031203114964482043 0.26425791144457389 0.13033585193284766 0.14124010204111556 0.017739592138911599 -0.012013102925072131 0.0035115605574445349 -0.01126693631543815 0.12302485046857961 -0.012220213615002829
leaf_weight=2078867.8020935059 691164.2138671875 35357.777984619141 23619.897857666016 20396.746185302734 22188.67822265625 54458.759674072266 16706.017242431641 56218.442474365234 21440.957611083984 16965.183013916016 18253.015808105469 38967.722351074219 63736.779388427734 18318.946594238281 611922.53237915039 36135.403442382812 89562.554626464844 16629.32080078125 139792.13488769531 16775.032012939453 230549.31991577148 20050.387664794922 29961.949920654297 21402.742950439453 646443.08657836914 16844.997009277344 45731.397247314453 455396.95745849609 22778.269866943359 231604.50457763672
leaf_count=6630 2144 81 71 59 63 161 49 164 63 49 52 97 200 51 1940 100 285 52 420 50 731 62 95 66 1992 50 145 1403 69 701
internal_value=0 0.0109536 0.0195358 0.0634626 0.0395303 -0.0189205 0.0528964 0.0143286 0.0582168 0.106606 0.0600918 0.0112112 0.0662111 0.118461 -0.00218492 0.0106319 -0.0151656 0.0292967 0.0207184 0.00465965 0.00797296 0.0179492 -0.00320442 0.00769727 0.012472 0.00268915 0.0537131 -0.00511289 0.0656162 0.00983702
internal_weight=0 3.65821e+06 2.21279e+06 234510 214114 2.15003e+06 71164.8 1.97828e+06 131197 74978.1 58012.9 1.84709e+06 102705 36572 1.44541e+06 727300 718114 106192 191925 156567 1.74438e+06 921718 822666 592116 901667 570714 75693.3 495020 39623.3 878048
internal_count=18095 11255 6734 673 614 6840 210 6061 379 215 166 5682 297 103 4521 2244 2277 337 551 470 5385 2826 2559 1828 2764 1762 240 1522 119 2693
is_linear=0
shrinkage=0.1


Tree=2
num_leaves=31
num_cat=0
split_feature=1 3 0 8 33 1 41 51 1 8 8 1 5 5 1 1 2 0 0 0 23 1 2 4 2 0 8 1 8 0
split_gain=110147 39827 134831 32040.1 50770.6 53839.3 47152.4 29652.4 25403.5 23820.6 38727.5 59398.6 22381 44509.5 20214.6 54117.4 19309.9 18415 17862.6 24766.5 39451.2 96873 118718 155976 57014.9 101587 71963.6 44849.2 41923.6 25413.9
threshold=-0.066688947133566004 -0.49999999999999994 2.0875000000000008 -0.66718061714178822 1.0000000180025095e-35 0.0092220388484760083 1.0000000180025095e-35 1.0000000180025095e-35 -0.7083377228215364 2.2544822604968391 2.4467862667055944 -0.17971209468813992 -1.0178571428571426 -0.9821428571428571 0.92326716084668403 1.0137129399910445 -1.0000000180025095e-35 -0.96250000000000024 1.6625000000000005 0.14583333333333334 1.0000000180025095e-35 0.38500530405142042 -0.74999999999999989 0.023437500000000003 -1.0000000180025095e-35 0.72083333333333355 -0.26930949967142964 -0.034403536754843041 0.47382298306170995 1.5125000000000004
decision_type=2 2 2 2 2 2 2 2 2 2 2 2 2 2 2 2 2 2 2 2 2 2 2 2 2 2 2 2 2 2
left_child=1 2 7 4 5 -2 14 8 -1 16 -11 -12 -5 -14 -7 -16 -3 -15 19 -19 21 -21 23 -23 -24 26 -26 -22 -28 -29
right_child=3 9 -4 12 -6 6 -8 -9 -10 10 11 -13 13 17 15 -17 -18 18 -20 20 27 22 24 -25 25 -27 28 29 -30 -31
leaf_value=0.07467896248518574 0.18631542926696054 -0.032250693341987977 0.30168283242664218 -0.018446917620602934 0.14575283122326194 -0.016752184970744839 0.14562718194035026 0.098472352118832082 -0.027668084755341882 0.14258095154809727 -0.040893853283706844 0.16333530411808217 0.15579018732335292 -0.03801885313991156 0.19506610663127211 0.0070751872403169817 -0.013563714950335379 0.006004112379061885 -0.014856642187214972 -0.0093672335279212735 0.15521553113954056 0.04693674797147987 -0.011434407352882954 0.38427498123215953 0.34852093011752955 -0.0080869323266191308 0.034651135918320794 -0.0039511211325349268 0.21962788719972393 0.12124167246341813
leaf_weight=28774.236877441406 19912.615905761719 966880.01965332031 16293.583099365234 275757.27926635742 40385.774597167969 171268.01617431641 25967.567108154297 28261.400207519531 154297.00149536133 22503.675933837891 77432.632415771484 17450.283935546875 21211.590942382812 76408.552581787109 18322.061889648438 93242.562622070312 1291729.1829223633 1351071.2505493164 227731.89181518555 168974.76138305664 19637.750579833984 26935.000671386719 82221.024810791016 27908.395660400391 18036.384643554688 52305.810333251953 28068.433197021484 427931.99737548828 21744.562255859375 16853.323852539062
leaf_count=93 56 3087 47 865 97 507 73 90 496 70 247 49 66 237 52 263 4158 4173 697 505 60 81 243 79 53 154 83 1298 65 51
internal_value=0 -0.0154525 0.0245061 0.0122239 0.0399423 0.0269423 0.0166653 0.00313585 -0.0115816 -0.0192807 0.0246395 -0.00333304 0.00862505 0.0115332 0.00482485 0.0379488 -0.0215634 0.0103312 0.0118273 0.0145381 0.0274842 0.0494545 0.0880962 0.2186 0.0527299 0.096637 0.17737 0.00732226 0.115398 0.000792552
internal_weight=0 2.60362e+06 227626 3.2119e+06 369099 328713 308800 211333 183071 2.376e+06 117387 94882.9 2.8428e+06 2.56704e+06 282833 111565 2.25861e+06 2.54583e+06 2.46942e+06 2.24169e+06 890617 426194 257220 54843.4 202376 120155 67849.4 464423 49813 444785
internal_count=18095 8337 726 9758 1048 951 895 679 589 7611 366 296 8710 7845 822 315 7245 7779 7542 6845 2672 1263 758 160 598 355 201 1409 148 1349
is_linear=0
shrinkage=0.1


Tree=3
num_leaves=31
num_cat=0
split_feature=1 5 8 5 26 0 3 0 8 3 43 51 4 27 0 22 0 0 8 0 6 1 34 36 5 0 1 1 1 0
split_gain=100338 34458.2 35398.9 91215.3 49797.1 77573.7 34169.8 134294 24506.5 21717.6 22797.1 21896.9 55374.7 21544.7 42083.8 21166.1 32472 105234 24937.4 74510 115239 23648.1 18482.9 22310.3 43625 21599.3 98666 28453.5 22058.4 39248.9
threshold=-0.20567974863820834 -0.1964285714285714 -0.67688560763829708 -0.053571428571428562 1.0000000180025095e-35 0.21250000000000008 -0.49999999999999994 2.2708333333333339 -0.70843843741647583 1.0000000180025095e-35 1.0000000180025095e-35 1.0000000180025095e-35 0.82031250000000011 1.0000000180025095e-35 0.14583333333333334 1.0000000180025095e-35 0.69583333333333353 1.3875000000000004 2.1126014880023063 -0.21250000000000002 -1.0000000180025095e-35 0.13336048504996942 1.0000000180025095e-35 1.0000000180025095e-35 0.5892857142857143 1.3125000000000004 -0.042169344210688346 0.67776030974603596 0.38500530405142042 0.22083333333333341
decision_type=2 2 2 2 2 2 2 2 2 2 2 2 2 2 2 2 2 2 2 2 2 2 2 2 2 2 2 2 2 2
left_child=6 9 3 -3 8 -6 7 13 -5 10 -2 -11 -13 -1 -15 18 21 -18 22 20 -20 -17 23 -4 -25 28 -27 -28 -24 -30
right_child=1 2 15 4 5 -7 -8 -9 -10 11 -12 12 -14 14 -16 16 17 -19 19 -21 -22 -23 25 24 -26 26 27 -29 29 -31
leaf_value=-0.027146729668384131 0.0052879506018487267 0.17552987521714361 -0.011741073060722324 -0.017036980241848666 -0.011678077079133672 0.23662092267863677 -0.021935543333365407 0.29540184769466843 0.10648007361693271 -0.02246397303725884 0.082579617800197846 -0.0051218605414304723 0.18683053628895385 -0.0071064043581458144 0.18608235916793742 0.078369212396960056 0.27117175403204768 -0.021907807554006488 0.33894329915245558 -0.0033358364615702109 -0.0049616367424841689 -0.025111527318722106 -0.0048643235799593742 -0.0040499279539926358 0.17990527089843114 0.28323234248532503 -0.028909222923181946 0.09202683614523216 0.0060268967542032115 0.065045135451563624
leaf_weight=119522.90032958984 700906.2292175293 48538.061767578125 613843.10244750977 144452.31564331055 25566.346862792969 24775.552398681641 1887024.176574707 16470.812805175781 18072.57080078125 602525.77618408203 40357.706756591797 93092.663757324219 17921.998626708984 39195.386077880859 15829.749725341797 36153.954864501953 23086.347808837891 26104.019073486328 19532.967987060547 74278.931762695312 19441.684600830078 56746.112243652344 480256.25491333008 42589.250213623047 18487.888336181641 16443.568176269531 53176.275726318359 30678.295166015625 352682.85736083984 165587.27569580078
leaf_count=384 2144 95 1864 416 70 46 6244 34 46 1940 100 294 43 127 51 94 44 72 39 197 61 169 1491 129 54 50 164 91 1082 460
internal_value=0 0.00954418 0.0171885 0.0518242 0.0236167 0.110521 -0.0178557 0.022448 -0.00330191 -0.00249135 0.00949608 -0.0149445 0.0258666 -0.00330878 0.0484706 0.0127265 0.0499462 0.115642 0.00992381 0.0554184 0.167394 0.01516 0.00701897 -0.00600601 0.0516329 0.0150192 0.0592565 0.0153353 0.0105757 0.0248832
internal_weight=0 3.7453e+06 2.29049e+06 261405 212867 50341.9 2.07804e+06 191019 162525 1.4548e+06 741264 713540 111015 174548 55025.1 2.02909e+06 142090 49190.4 1.887e+06 113254 38974.7 92900.1 1.77374e+06 674920 61077.1 1.09882e+06 100298 83854.6 998526 518270
internal_count=18095 11255 6734 673 578 116 6840 596 462 4521 2244 2277 337 562 178 6061 379 116 5682 297 100 263 5385 2047 183 3338 305 255 3033 1542
is_linear=0
shrinkage=0.1


Tree=4
num_leaves=31
num_cat=0
split_feature=1 3 0 0 2 8 8 1 8 1 8 49 1 2 51 1 5 5 3 28 0 4 0 0 0 0 0 4 0 0
split_gain=91520.2 32828.4 129366 23419.1 23143.4 26466.2 43115 42417.5 23126.2 57208.4 54135.6 80962.8 45239.5 101752 22443.4 20684 19429.7 35957.2 18319.9 16020.4 51701.7 117922 15479.3 20666.2 86775.3 22483.9 39551.1 107031 19146.6 18765.9
threshold=-0.066688947133566004 -0.49999999999999994 2.7041666666666675 -0.95416666666666694 -0.74999999999999989 2.2544822604968391 2.4467862667055944 -0.17971209468813992 -0.66718061714178822 -0.016316500651946137 -0.70843843741647583 1.0000000180025095e-35 1.230373937104392 -1.0000000180025095e-35 1.0000000180025095e-35 -0.7083377228215364 -1.0178571428571426 -0.9821428571428571 -0.49999999999999994 1.0000000180025095e-35 0.69583333333333353 0.58593750000000011 1.6625000000000005 1.3125000000000004 1.3625000000000005 0.7791666666666669 0.6625000000000002 0.78906250000000011 1.5625000000000007 0.14583333333333334
decision_type=2 2 2 2 2 2 2 2 2 2 2 2 2 2 2 2 2 2 2 2 2 2 2 2 2 2 2 2 2 2
left_child=1 2 14 -2 -3 19 -7 -8 9 -5 12 -12 18 -14 15 -1 -10 -18 -11 -6 -21 -22 23 25 -25 26 29 -28 -26 -19
right_child=3 4 -4 8 5 6 7 -9 16 10 11 -13 13 -15 -16 -17 17 22 -20 20 21 -23 -24 24 28 -27 27 -29 -30 -31
leaf_value=0.059185248569829652 -0.037244599340141397 -0.038506067569889661 0.28612091699761194 0.2064347154727425 -0.019557326169788572 0.17049716528496814 -0.0381788801073214 0.13058932107752172 -0.016991280361066331 0.085599440481797906 -0.0014706003475881374 0.2471800581133537 0.26608552513320172 -0.023759100912481734 0.076052984747243035 -0.02804936878005463 0.13431240173828859 0.0056003412576583408 -0.012590385471641711 -0.013138510373043958 -0.033212387129510162 0.33629344748884338 -0.014482124552797154 0.25298878398266889 -0.018429405826689303 -0.018579472840246192 0.010125940000869658 0.30439136669665912 0.089024570332078279 0.027545641199449983
leaf_weight=32870.211944580078 98777.307952880859 452451.0387878418 17048.724334716797 18538.800903320312 1546243.7184143066 19461.100860595703 59119.542816162109 19906.90185546875 260531.23992919922 20567.48291015625 26659.189086914062 25736.888580322266 20979.98388671875 28653.727691650391 33301.551544189453 157019.50268554688 23687.961578369141 1356584.7560424805 249570.71600341797 164419.86541748047 20859.226409912109 14739.765655517578 225307.26956176758 18497.747680664062 57080.435943603516 230444.44845581055 43414.670501708984 17280.044189453125 23372.028137207031 546691.58544921875
leaf_count=97 314 1494 26 40 5156 54 201 44 834 56 68 60 50 73 94 509 63 4155 676 546 70 46 697 44 166 655 129 44 64 1570
internal_value=0 -0.0145604 0.0206121 0.0107112 -0.0182387 -0.0132679 0.0371681 0.00433411 0.0121945 0.0349869 0.0264465 0.120666 0.0110081 0.0987572 0.000330778 -0.0129488 0.00901737 0.0116826 -0.00511445 -0.0161124 0.0105184 0.119782 0.0105293 0.0129865 0.0576904 0.0109707 0.014438 0.0939051 0.0127867 0.0119039
internal_weight=0 2.53744e+06 240240 3.29238e+06 2.2972e+06 1.84475e+06 98487.5 79026.4 3.1936e+06 390707 372168 52396.1 319772 49633.7 223191 189890 2.80289e+06 2.54236e+06 270138 1.74626e+06 200019 35599 2.51867e+06 2.29337e+06 98950.2 2.19442e+06 1.96397e+06 60694.7 80452.5 1.90328e+06
internal_count=18095 8337 726 9758 7611 6117 299 245 9444 1023 983 128 855 123 700 606 8421 7587 732 5818 662 116 7524 6827 274 6553 5898 173 230 5725
is_linear=0
shrinkage=0.1


Tree=5
num_leaves=31
num_cat=0
split_feature=1 5 30 8 1 1 0 19 4 3 40 0 3 1 5 43 1 8 51 33 38 1 1 49 1 2 0 1 8 27
split_gain=83585.8 28888 28302.3 149968 25901.9 65823.2 80517.2 71711.6 87767.1 19454.3 21372.8 55939.9 18505.3 32777.5 95994.9 18490.8 17321.5 27852.4 43831.9 24662.9 134602 35649.3 19658.5 30976.8 18165.4 31826.4 86242.5 17188 44732.9 53201
threshold=-0.20567974863820834 -0.1964285714285714 1.0000000180025095e-35 -0.36378563176370216 1.2455144231839703 1.2887434051349074 0.21250000000000008 1.0000000180025095e-35 0.17968750000000003 1.0000000180025095e-35 1.0000000180025095e-35 -0.27916666666666673 0.50000000000000011 -0.14971372902899596 0.12500000000000003 1.0000000180025095e-35 0.095399034152844994 -0.31837410079650635 1.0000000180025095e-35 1.0000000180025095e-35 1.0000000180025095e-35 0.28924668026560996 -0.055347484735919203 1.0000000180025095e-35 0.13336048504996942 1.0000000180025095e-35 0.32916666666666672 0.51747450715797971 -0.01266294703002138 1.0000000180025095e-35
decision_type=2 2 2 2 2 2 2 2 2 2 2 2 2 2 2 2 2 2 2 2 2 2 2 2 2 2 2 2 2 2
left_child=2 9 -1 -4 12 6 -6 -7 -9 15 -11 -12 13 14 -3 -2 17 18 22 24 21 -21 23 -15 25 26 -18 -14 -29 -30
right_child=1 4 3 -5 5 7 -8 8 -10 10 11 -13 27 16 -16 -17 19 -19 -20 20 -22 -23 -24 -25 -26 -27 -28 28 29 -31
leaf_value=-0.019641195698849423 0.0045638114834043817 0.23015881855931691 0.25823339084200403 -0.029008449315665326 0.028261603698975186 -0.025599737817607205 0.29663563139225063 0.23357031226145364 -0.027898701629147295 -0.018972885461193859 0.2048563889223225 -0.034652969079487887 -0.018667678599537819 0.13958129828321489 0.00856242066758711 0.071274939197470064 0.28565975179506214 -0.022677431831182357 0.16628990608220648 0.12053078520118654 0.29510461041990038 -0.028563154655301078 -0.027545867154638838 -0.038004161054745328 0.012158666137509334 -0.036569635554796302 -0.020454410496352916 -0.024114925877309356 0.018814600661862208 0.17315390796573044
leaf_weight=1905942.8259887695 710266.83868408203 27910.240600585938 23198.277801513672 83958.569854736328 23446.529571533203 111944.44827270508 21366.592987060547 28693.124603271484 23232.198059082031 665303.68325805664 15570.837951660156 26092.574920654297 323956.96130371094 22610.125457763672 65254.426147460938 44130.293853759766 17494.375518798828 264447.0276184082 21053.170074462891 21632.386108398438 20647.302459716797 62003.945281982422 61841.035247802734 17367.184875488281 957656.85906982422 18332.990051269531 19419.974548339844 123204.76867675781 76099.460296630859 31611.505798339844
leaf_count=6489 2144 80 74 277 70 305 48 77 61 2143 50 84 961 66 193 100 51 797 46 62 52 172 164 51 2735 51 57 340 209 86
internal_value=0 0.0083471 -0.0168297 0.0331763 0.0151861 0.048824 0.156221 0.0194542 0.116585 -0.00270308 -0.0146218 0.0548587 0.0119249 0.0173891 0.0749485 0.00846626 0.0138248 -0.00439836 0.0349422 0.0201427 0.0664485 0.0099997 0.00778295 0.0624334 0.0153752 0.0711307 0.124619 -0.00380833 0.0170382 0.064111
internal_weight=0 3.82259e+06 2.0131e+06 107157 2.36123e+06 208683 44813.1 163870 51925.3 1.46136e+06 706967 41663.4 2.15254e+06 1.59767e+06 93164.7 754397 1.50451e+06 387319 122872 1.11719e+06 104284 83636.3 101818 39977.3 1.0129e+06 55247.3 36914.4 554873 230916 107711
internal_count=18095 11255 6840 351 6734 561 118 443 138 4521 2277 134 6173 4577 273 2244 4304 1124 327 3180 286 234 281 117 2894 159 108 1596 635 295
is_linear=0
shrinkage=0.1


Tree=6
num_leaves=31
num_cat=0
split_feature=1 3 30 32 2 8 34 0 0 1 8 5 0 0 23 5 30 4 0 19 1 3 20 23 4 0 1 50 3 35
split_gain=76656.8 29831.7 91039.2 24250.6 22643.4 23866.6 39218.3 23648.1 21069.8 19524.6 109010 23029.4 19977.7 61647.8 67561 30751.7 26101.8 65373 20602.5 65449.6 80621.9 44025.4 29002.7 44120.1 82280.6 17468.9 21910.4 52879.1 16275.8 29589
threshold=-0.066688947133566004 -0.49999999999999994 1.0000000180025095e-35 1.0000000180025095e-35 -0.74999999999999989 2.2544822604968391 1.0000000180025095e-35 -0.42916666666666675 -0.95416666666666694 -0.049403175796003632 -0.37409049867526029 -1.0178571428571426 0.73750000000000027 0.62916666666666687 1.0000000180025095e-35 -0.9821428571428571 1.0000000180025095e-35 0.92968750000000011 0.21250000000000008 1.0000000180025095e-35 1.2455144231839703 -0.49999999999999994 1.0000000180025095e-35 1.0000000180025095e-35 -0.070312499999999986 0.012500000000000015 -0.016316500651946137 1.0000000180025095e-35 0.50000000000000011 1.0000000180025095e-35
decision_type=2 2 2 2 2 2 2 2 2 2 2 2 2 2 2 2 2 2 2 2 2 2 2 2 2 2 2 2 2 2
left_child=1 2 3 -1 -3 -6 -7 -8 -2 10 -10 -11 13 15 -15 -13 -14 -18 25 20 21 -20 -23 24 -24 26 27 -17 -28 -30
right_child=8 4 -4 -5 5 6 7 -9 9 11 -12 12 16 14 -16 18 17 -19 19 -21 -22 22 23 -25 -26 -27 28 -29 29 -31
leaf_value=-0.0099055614945323337 -0.036830245183399384 -0.037950432797029733 0.21360841575171083 0.10762472234160091 -0.015244028789407234 0.12989190454127633 0.084101479415444408 -0.042914660651249964 0.23278390661353043 -0.017627110463581491 -0.021573010484720313 0.13821643224326241 -0.0099410949798517736 0.19966747393890188 0.0026975379316885265 -0.019564782291459519 -0.00056903009260901745 0.21958837411849652 0.16357791616034623 -0.011990820898720018 0.19950910744383951 7.1567352473157562e-06 -0.018081615807657572 -0.0078040122841058421 0.23361517520223041 -0.014896460464213938 0.016032160454104702 0.1848276180990385 -0.024638261191424246 0.050751637432377587
leaf_weight=203092.22189331055 95586.792144775391 430978.81866455078 21976.826110839844 19216.954254150391 1702198.7927246094 30331.38232421875 20676.690765380859 50357.100860595703 24880.721496582031 283098.98962402344 52196.816284179688 19680.910034179688 591240.81622314453 37855.382751464844 32248.807739257812 26966.384368896484 54889.596099853516 17881.1982421875 26378.099029541016 217637.67596435547 36372.339019775391 148462.70684814453 22016.218627929688 40541.146575927734 31672.084777832031 295464.69860839844 955126.27618408203 23854.648315429688 263885.03399658203 64854.456634521484
leaf_count=609 314 1494 59 58 5818 90 60 149 54 914 151 47 1669 92 89 79 155 42 67 589 83 412 59 115 82 869 2798 69 810 199
internal_value=0 -0.0137305 0.0194483 0.000254045 -0.0173577 -0.0124369 0.0347032 -0.00594228 0.00944712 0.010801 0.0605338 0.00959942 0.0122509 0.0167613 0.109059 0.0137835 -0.00298533 0.053528 0.0126462 0.0299143 0.059773 0.0408837 0.027548 0.0709396 0.130401 0.00710521 0.0119758 0.076374 0.00942664 -0.00976513
internal_weight=0 2.47883e+06 244286 222309 2.23454e+06 1.80356e+06 101365 71033.8 3.36279e+06 3.26721e+06 77077.5 3.19013e+06 2.90703e+06 2.24302e+06 70104.2 2.17291e+06 664012 72770.8 2.15323e+06 523080 305443 269070 242692 94229.4 53688.3 1.63015e+06 1.33469e+06 50821 1.28387e+06 328739
internal_count=18095 8337 726 667 7611 6117 299 209 9758 9444 205 9239 8325 6459 181 6278 1866 197 6231 1407 818 735 668 256 141 4824 3955 148 3807 1009
is_linear=0
shrinkage=0.1


Tree=7
num_leaves=31
num_cat=0
split_feature=1 0 0 5 8 5 26 0 3 51 4 0 0 1 8 22 28 38 8 6 8 2 8 8 3 0 0 50 0 35
split_gain=69727 26703.1 147929 23938.1 22924.2 52742.5 33955.9 40206 17320.8 20068.2 44354.9 16605.2 58508.8 22848.7 16521.9 22024.4 34176.1 59767.2 20086.8 21585.1 47489.6 58647.4 33878.8 78204.6 20343.2 24658.5 37720.8 31033.1 69154.6 17665.5
threshold=-0.20567974863820834 2.6458333333333344 2.8458333333333345 -0.1964285714285714 -0.67688560763829708 -0.053571428571428562 1.0000000180025095e-35 0.21250000000000008 1.0000000180025095e-35 1.0000000180025095e-35 0.83593750000000011 0.72083333333333355 0.6625000000000002 -0.8443554860177297 -0.4654934209204486 1.0000000180025095e-35 1.0000000180025095e-35 1.0000000180025095e-35 -0.44899785388152219 -1.0000000180025095e-35 1.7412232270216819 1.0000000180025095e-35 0.037812341803228844 -0.01266294703002138 0.50000000000000011 0.44583333333333341 0.22083333333333341 1.0000000180025095e-35 -0.45416666666666677 1.0000000180025095e-35
decision_type=2 2 2 2 2 2 2 2 2 2 2 2 2 2 2 2 2 2 2 2 2 2 2 2 2 2 2 2 2 2
left_child=1 11 -3 8 5 -5 -7 -8 -2 -10 -11 12 13 -1 -6 18 17 -17 -16 20 22 -22 23 24 25 26 27 -20 -29 -24
right_child=3 2 -4 4 14 6 7 -9 9 10 -12 -13 -14 -15 15 16 -18 -19 19 -21 21 -23 29 -25 -26 -27 -28 28 -30 -31
leaf_value=0.097097637528274702 0.0075980119969525674 0.27562083683787741 -0.034162557879096507 0.11926396764455045 -0.013126936245651422 -0.0056982215057068616 -0.012814779706105726 0.15023970929116004 -0.021642018002612302 -0.0050133869538439256 0.15770317723029492 -0.037593413215398476 0.14898974498792678 -0.017469917352428848 0.08972042377656135 -0.010094067646057489 0.15464019849126837 0.16700106634431089 -0.0045382291122574485 -0.000239791301228298 0.034803034325698166 0.21940993422177235 -0.02124046956068772 0.20300688807259656 -0.032222827708901301 -0.02834999966582033 0.19347597179887394 0.23885346862273316 -0.0052493950758218215 0.042431013137589103
leaf_weight=17616.426147460938 765836.97882080078 20160.696166992188 65480.837371826172 64705.497985839844 274560.86944580078 171384.23812866211 26355.122192382812 35481.753662109375 584848.73522949219 92866.481323242188 20439.451843261719 361366.67938232422 21779.215515136719 1467705.4006958008 31070.960113525391 89403.170440673828 26053.908355712891 24219.138092041016 70013.5361328125 1048444.328338623 51426.675323486328 25863.691314697266 246400.63095092773 26255.779602050781 54960.038879394531 43270.467926025391 17927.807586669922 20449.969085693359 26835.261108398438 52936.100189208984
leaf_count=56 2244 36 184 95 777 462 70 46 1940 298 39 1271 76 5217 88 211 61 55 208 3085 101 48 733 65 164 121 47 59 79 159
internal_value=0 -0.0158387 0.038763 0.00731248 0.0134023 0.0393838 0.0172216 0.0807452 -0.00278735 -0.0141795 0.0243394 -0.0183414 -0.0137252 -0.0161111 0.00976832 0.0131561 0.0513415 0.0276546 0.0100477 0.00857834 0.0231072 0.0965784 0.0129496 0.0393781 0.0209754 0.0373555 0.0583803 0.0377322 0.100321 -0.00998046
internal_weight=0 1.95411e+06 85641.5 3.89201e+06 2.42802e+06 297927 233221 61836.9 1.46399e+06 698155 113306 1.86847e+06 1.5071e+06 1.48532e+06 2.13009e+06 1.85553e+06 139676 113622 1.71586e+06 1.68478e+06 636340 77290.4 559050 259713 233457 178497 135227 117299 47285.2 299337
internal_count=18095 6840 220 11255 6734 673 578 116 4521 2277 337 6620 5349 5273 6061 5284 327 266 4957 4869 1784 149 1635 743 678 514 393 346 138 892
is_linear=0
shrinkage=0.1


Tree=8
num_leaves=31
num_cat=0
split_feature=1 3 5 0 2 28 1 3 41 4 0 0 1 8 5 4 1 0 0 48 5 0 1 3 0 0 8 2 33 3
split_gain=63720 26906.1 75082.5 163740 22343.7 24032 57549.9 83098.9 31237.8 21415.9 19203.9 17698.6 18583.4 87477 18061 16680.9 16120.7 36541.2 75133.7 49180.4 32194 49204.4 25854.9 63910.7 31034.7 27863.1 26820.8 22601 80647.3 23537
threshold=-0.066688947133566004 -0.49999999999999994 0.62500000000000011 0.4791666666666668 -0.74999999999999989 1.0000000180025095e-35 -0.17971209468813992 1.0000000180025095e-35 1.0000000180025095e-35 -0.88281249999999989 -0.95416666666666694 2.0875000000000008 -0.049403175796003632 -0.41454333195662496 -1.0178571428571426 -1.0703124999999998 0.34935385823705917 0.21250000000000008 0.22916666666666677 1.0000000180025095e-35 -0.76785714285714268 -0.062500000000000056 0.41897150311414816 -1.0000000180025095e-35 -0.77916666666666679 -0.83750000000000002 0.50046672591842711 -0.74999999999999989 1.0000000180025095e-35 -0.49999999999999994
decision_type=2 2 2 2 2 2 2 2 2 2 2 2 2 2 2 2 2 2 2 2 2 2 2 2 2 2 2 2 2 2
left_child=1 2 9 -4 -3 -6 8 -8 -7 -1 -2 12 13 -12 -14 -16 20 22 -19 27 21 -17 23 -18 25 -24 -25 28 -20 -29
right_child=10 4 3 -5 5 6 7 -9 -10 -11 11 -13 14 -15 15 16 17 18 19 -21 -22 -23 24 26 -26 -27 -28 29 -30 -31
leaf_value=0.086090151376185697 -0.036486141693984932 -0.03740840577156488 -0.027661945121775996 0.33586746740269263 -0.015816573429547048 -0.018250636362368917 0.27391297421827676 -0.018625190091379144 0.13229018007933313 -0.020866259138947612 0.20146199395925535 -0.018829898617970846 -0.015067324858701542 -0.019765910345288452 -0.036098305012028216 0.16801970063887306 0.20087787465154114 0.21716350085661179 0.029465027483232393 0.13721227450616127 -0.0013793238468260555 -0.0067796506152107061 0.030085684578027502 -0.038804798537858273 -0.0030669396737547663 0.16870437361105742 0.11440430596312925 0.085960672412570605 0.23398913597824117 0.0066734271509267798
leaf_weight=20937.929107666016 93089.771270751953 411909.44030761719 29147.537963867188 21551.037322998047 1552637.0085754395 154372.82829284668 19755.734527587891 19096.201385498047 15135.206878662109 176779.08792114258 27902.18603515625 205985.71606445312 258843.2409362793 49729.260375976562 68762.675567626953 29131.332153320312 23403.889404296875 22346.565155029297 153754.33557128906 41000.029052734375 910911.23870849609 36009.198577880859 66768.332489013672 40568.261596679688 855171.84805297852 18523.486785888672 15906.138671875 40855.980010986328 22043.806488037109 447891.97387695312
leaf_count=66 314 1494 95 39 5423 539 42 61 52 526 45 614 854 142 200 84 62 50 374 95 2628 107 194 120 2482 49 48 94 43 1159
internal_value=0 -0.0128772 0.0182995 0.126868 -0.0164414 -0.0115371 0.020352 0.130127 -0.00480886 -0.00953965 0.00831266 0.00956295 0.0114318 0.0597475 0.0102027 0.0125446 0.0137724 0.0195202 0.0366373 0.0309195 0.00347734 0.0713919 0.00730919 0.0619296 0.00266998 0.0601909 0.00434683 0.0243616 0.055111 0.0133013
internal_weight=0 2.42132e+06 248416 50698.6 2.17291e+06 1.761e+06 208360 38851.9 169508 197717 3.4286e+06 3.33551e+06 3.12952e+06 77631.4 3.05189e+06 2.79305e+06 2.72429e+06 1.74823e+06 727893 705546 976052 65140.5 1.02034e+06 79878.3 940464 85291.8 56474.4 664546 175798 488748
internal_count=18095 8337 726 134 7611 6117 694 103 591 592 9758 9444 8830 187 8643 7789 7589 4770 1815 1765 2819 191 2955 230 2725 243 168 1670 417 1253
is_linear=0
shrinkage=0.1


Tree=9
num_leaves=31
num_cat=0
split_feature=1 3 5 0 0 5 0 0 13 31 5 1 3 4 0 46 4 4 5 8 8 50 0 35 8 4 4 8 4 3
split_gain=57979.1 22766.1 66650.7 98139.5 20531.3 20818.8 24729.5 42631.9 22656 22315.2 27590.4 36224.6 110118 138180 58225.7 115211 34475.9 31952.4 27995.1 25502.8 24925 23021.9 28051.7 34921.5 21294.4 31135.8 80034.4 48171.6 20745.5 20136.2
threshold=-0.20567974863820834 -0.49999999999999994 0.62500000000000011 0.4791666666666668 -0.95416666666666694 -0.1964285714285714 -0.76250000000000007 -0.81250000000000011 1.0000000180025095e-35 1.0000000180025095e-35 0.37500000000000006 1.2609160475209868 1.0000000180025095e-35 1.0000000180025095e-35 1.3125000000000004 1.0000000180025095e-35 1.1484375000000002 1.9296875000000002 -1.0000000180025095e-35 -0.91710618799635546 2.3506056148681114 1.0000000180025095e-35 -0.12916666666666679 1.0000000180025095e-35 0.037812341803228844 0.52343750000000011 0.67968750000000011 -0.019387932915327737 0.83593750000000011 0.50000000000000011
decision_type=2 2 2 2 2 2 2 2 2 2 2 2 2 2 2 2 2 2 2 2 2 2 2 2 2 2 2 2 2 2
left_child=1 2 -1 -4 -2 6 7 8 -6 10 11 14 -13 -14 19 -16 21 -18 -17 -7 24 -12 23 29 25 27 -27 -21 -28 -23
right_child=4 -3 3 -5 5 9 -8 -9 -10 -11 16 12 13 -15 15 18 17 -19 -20 20 -22 22 -24 -25 -26 26 28 -29 -30 -31
leaf_value=-0.01610250458007197 -0.037594123952976732 -0.018705667140348551 -0.041219534619455322 0.23651514093485704 -0.030390183097575275 0.086687158216954108 -0.0052706891123753714 0.18856621927297301 0.090286997852015202 -0.0057894966928308984 -0.01428011285294436 -0.02438708848982029 0.03280207938076974 0.37071854215657707 0.28629577488643643 0.12108085848849359 0.12531545526596299 -0.024713853276485166 -0.013537724446071457 -0.0037808105147746659 0.084696831134201858 0.05485472871852326 -0.0050383566416411854 0.15509823453925672 -0.012446917837864661 0.21744357672412554 0.077458586502376345 0.14386523272723536 -0.030394215253403696 -0.038949480055715774
leaf_weight=157172.65591430664 103301.3821105957 1690116.6519622803 22647.093994140625 29033.052764892578 42315.265502929688 47027.788238525391 1347118.8382568359 17681.703857421875 24602.151977539062 491351.71435546875 486726.31015014648 44869.641510009766 25536.261352539062 23000.891204833984 24161.368896484375 23455.493698120117 42955.092834472656 21202.126190185547 45249.175445556641 311921.76766967773 43351.644165039062 84090.733978271484 193941.63977050781 27291.864105224609 329080.01312255859 26973.46875 31196.06982421875 23782.446441650391 41638.796127319336 31439.693481445312
leaf_count=482 354 6244 77 37 128 94 4128 52 78 1350 1357 104 56 48 53 60 99 54 126 845 86 231 520 75 953 65 77 58 107 97
internal_value=0 -0.0148567 0.0162908 0.114807 0.0064014 0.00758127 -0.00197717 0.0504672 0.0139766 0.0132357 0.018082 0.0291245 0.0885405 0.192935 0.0232692 0.0984727 0.00512865 0.0757349 0.0324205 0.0151007 0.0109339 -0.000372201 0.0197289 0.053361 0.00675154 0.0212582 0.0702953 0.00667896 0.0158004 0.0293274
internal_weight=0 1.89897e+06 208853 51680.1 3.95526e+06 3.85196e+06 1.43172e+06 84599.1 66917.4 2.42024e+06 1.92889e+06 1.04124e+06 93406.8 48537.2 947838 92866 887647 64157.2 68704.7 854972 807944 823490 336764 142822 764593 435513 99808.3 335704 72834.9 115530
internal_count=18095 6840 596 114 11255 10901 4386 258 206 6515 5165 2732 208 104 2524 239 2433 153 186 2285 2191 2280 923 403 2105 1152 249 903 184 328
is_linear=0
shrinkage=0.1


Tree=10
num_leaves=31
num_cat=0
split_feature=1 8 38 34 8 1 8 3 44 30 4 0 34 8 8 1 28 1 0 7 42 4 5 0 0 0 50 5 30 3
split_gain=53317.6 24166.2 72000.4 24141.2 32776.7 19158.3 55888.8 19103.7 20993.2 42724.7 130372 41811.1 39039.1 125646 29635.2 29568.8 22785.3 55844.5 19761.2 17537.6 52165.3 79002.6 17053.1 15148.6 17698.8 54899.5 58882.6 22430.7 18979.4 45418.3
threshold=-0.061314074866879495 2.2544822604968391 1.0000000180025095e-35 1.0000000180025095e-35 2.8099776134167649 -0.049403175796003632 -0.4018655905032042 0.50000000000000011 1.0000000180025095e-35 1.0000000180025095e-35 -0.28906249999999994 -0.50416666666666676 1.0000000180025095e-35 0.64116205730534792 -0.21530953114726417 -0.27505109985699377 1.0000000180025095e-35 -0.65097851820313879 -0.71250000000000013 -1.0000000180025095e-35 1.0000000180025095e-35 0.30468750000000006 -1.0178571428571426 -0.93750000000000022 0.72083333333333355 0.62916666666666687 1.0000000180025095e-35 -0.9821428571428571 1.0000000180025095e-35 1.0000000180025095e-35
decision_type=2 2 2 2 2 2 2 2 2 2 2 2 2 2 2 2 2 2 2 2 2 2 2 2 2 2 2 2 2 2
left_child=1 7 3 4 -3 6 -2 8 16 11 -11 12 13 15 18 -10 -1 -18 -14 20 -13 -22 -7 -24 25 27 -27 -25 -26 -30
right_child=5 2 -4 -5 -6 22 -8 -9 9 10 -12 19 14 -15 -16 -17 17 -19 -20 -21 21 -23 23 24 28 26 -28 -29 29 -31
leaf_value=-0.027924314130255368 0.16407911122088192 0.15084967819647713 0.17105738383356894 -0.042327753185096406 -0.03544750576665251 -0.017166563560026007 -0.022064981085569209 -0.031007308648428468 -0.031844634491289742 0.291673139593223 -0.01287152520252908 -0.020928040977591492 0.0020789967762630027 0.36642326941520159 -0.029741033054113859 0.13925759455061756 0.18147353231662283 -0.016583877963437316 0.1340015484300168 -0.029581996470125257 -0.0072896368477059813 0.21203953360216821 -0.031555772567457167 0.10874628778391851 -0.010324418541273228 0.16994275965743733 -0.023118540079397169 0.010207555295623711 -0.0066634256826209777 0.15611395272523454
leaf_weight=672936.50793457031 29149.829498291016 18654.317443847656 28238.192626953125 71333.932357788086 19127.063522338867 282040.56800842285 36111.29541015625 533401.51512145996 31177.500061035156 19948.362686157227 47592.338806152344 227184.43690490723 21895.807006835938 13915.225189208984 83933.612762451172 14939.691345214844 18376.977355957031 63182.220352172852 23585.896301269531 419529.90069580078 42060.240509033203 26942.841537475586 91581.23551940918 23342.429016113281 613879.38681030273 44692.097076416016 24434.976745605469 2232128.9076843262 59080.450286865234 24147.042785644531
leaf_count=2377 37 47 81 220 57 949 105 1980 115 49 154 802 76 50 295 47 62 205 78 1482 149 82 319 47 1695 93 59 6183 150 50
internal_value=0 -0.0119906 0.0287357 -0.00809608 0.0565354 0.00741081 0.061079 -0.0144652 -0.00935656 0.000353119 0.0770769 -0.00537177 0.0364024 0.103053 0.00548471 0.023584 -0.0218744 0.0280426 0.0704917 -0.0164293 0.00220069 0.0783493 0.00637926 0.00851234 0.00972672 0.0139178 0.1017 0.0112274 -0.00424888 0.0405637
internal_weight=0 2.39796e+06 137354 109115 37781.4 3.46059e+06 65261.1 2.2606e+06 1.7272e+06 972706 67540.7 905165 189448 60032.4 129415 46117.2 754496 81559.2 45481.7 715717 296188 69003.1 3.39533e+06 3.11329e+06 3.02171e+06 2.3246e+06 69127.1 2.25547e+06 697107 83227.5
internal_count=18095 8408 405 324 104 9687 142 8003 6023 3379 203 3176 661 212 449 162 2644 267 154 2515 1033 231 9545 8596 8277 6382 152 6230 1895 200
is_linear=0
shrinkage=0.1


Tree=11
num_leaves=31
num_cat=0
split_feature=1 3 40 32 2 28 8 1 51 7 1 1 0 27 5 0 8 0 0 25 4 8 5 1 8 1 5 0 4 0
split_gain=48732.8 22943.2 133852 23530.4 21050.2 22518.5 42530 58878.3 22335.5 15933.7 35039.6 54556.5 68448 42886.6 62388.2 36965.2 25014.7 45877 17679.1 32405 39720.9 16196.6 33330.6 15776.5 47157.7 15749.8 15417.7 15299 13986.6 15145.8
threshold=-0.061314074866879495 -0.49999999999999994 1.0000000180025095e-35 1.0000000180025095e-35 -0.74999999999999989 1.0000000180025095e-35 0.88049014866757347 -0.24296335944229785 1.0000000180025095e-35 -1.0000000180025095e-35 -0.51992554107776334 -0.40634671637441427 0.56250000000000033 1.0000000180025095e-35 1.0000000180025095e-35 1.3125000000000004 -0.4376717384933429 -0.012500000000000011 -0.51250000000000007 1.0000000180025095e-35 0.023437500000000003 2.2544822604968391 0.19642857142857145 -0.049403175796003632 -0.42564201725274398 -0.23081505540707756 -1.0178571428571426 -0.56250000000000011 -1.0703124999999998 0.72083333333333355
decision_type=2 2 2 2 2 2 2 2 2 2 2 2 2 2 2 2 2 2 2 2 2 2 2 2 2 2 2 2 2 2
left_child=1 2 3 -1 -3 9 8 -8 -7 10 16 12 13 -12 -15 -13 17 -6 19 27 25 -20 -23 24 -2 -21 -25 -11 -28 -30
right_child=23 4 -4 -5 5 6 7 -9 -10 18 11 15 -14 14 -16 -17 -18 -19 21 20 -22 22 -24 26 -26 -27 28 -29 29 -31
leaf_value=-0.014635515335066166 0.14206193431480127 -0.036060490628200458 0.25867736850692369 0.093498197655672077 -0.047188250471160625 -0.022053006897847657 0.02234680768041411 0.25160772848349572 0.070998873446394259 -0.035402027895526586 -0.013172391908758888 -0.017745101533345381 0.26190953813592338 0.28262304764289564 -0.015328028080285359 0.11101765704581722 -0.043364552826737769 0.19185746010755322 -0.035691932152184289 -0.027308388480832925 0.16468676453965125 -0.048188878707399956 0.12941339778711486 -0.016603974795361118 -0.022853287006374096 0.091354007409074803 -0.036287657177105477 0.070214781128026579 0.012794042693503963 -0.0040027789167802769
leaf_weight=220081.67825317383 32497.407104492188 389986.10205078125 20957.705917358398 22148.7841796875 19799.49494934082 135523.64276123047 32650.514205932617 17052.517486572266 31859.664688110352 144562.96284484863 49784.071166992188 237510.82392883301 17414.782562255859 14806.107574462891 13376.898376464844 24604.819229125977 216082.71939086914 13504.16130065918 617068.93878173828 38517.128173828125 22697.94482421875 24744.051544189453 18442.604827880859 277240.23022460938 37173.283050537109 15762.76318359375 69736.463104248047 15152.461364746094 2378041.1967773438 693349.27130126953
leaf_count=636 34 1511 41 58 74 459 113 34 94 514 190 830 62 55 50 81 816 50 2300 143 78 69 47 949 108 50 208 53 6496 1892
internal_value=0 -0.011612 0.0162286 -0.00474804 -0.0150832 -0.0103294 0.0197779 0.101004 -0.00434146 -0.0146756 -0.00216177 0.0179072 0.0826663 0.0426299 0.141202 -0.00565805 -0.0309309 0.0497414 -0.0231426 0.000305598 0.0536027 -0.0315485 0.027655 0.0069617 0.0540702 0.00715084 0.00600156 -0.0253819 0.00799676 0.00900225
internal_weight=0 2.37409e+06 263188 242230 2.11091e+06 1.72092e+06 217086 49703 167383 1.50383e+06 606884 357498 95381.9 77967.1 28183 262116 249386 33303.7 896949 236693 76977.8 660256 43186.7 3.48804e+06 69670.7 54279.9 3.41837e+06 159715 3.14113e+06 3.07139e+06
internal_count=18095 8408 735 694 7673 6162 700 147 553 5462 2208 1268 357 295 105 911 940 124 3254 838 271 2416 116 9687 142 193 9545 567 8596 8388
is_linear=0
shrinkage=0.1


Tree=12
num_leaves=31
num_cat=0
split_feature=1 0 30 3 8 8 4 4 4 3 48 1 23 5 5 1 8 1 0 0 8 0 3 5 4 8 1 27 1 35
split_gain=44766.5 18843 83317.5 18743.3 21699.7 27375.2 21553.6 21069.3 31032.3 32857.5 90508.7 47713.1 44986.2 31309.8 29243.4 33119.7 23879.6 24415.5 23768.3 29507.4 25450.6 21524.7 20312.7 23159.6 23200.6 34024.7 20796.4 18942.3 36841.5 38566.9
threshold=-0.20567974863820834 2.7041666666666675 1.0000000180025095e-35 0.50000000000000011 -0.15898299767224294 -0.17669304353130769 2.0859375000000004 0.89843750000000011 0.75781250000000011 1.0000000180025095e-35 1.0000000180025095e-35 -0.049403175796003632 1.0000000180025095e-35 0.12500000000000003 -0.12499999999999999 0.22962197177531071 -0.56718397433792866 0.60042065372560616 0.56250000000000033 0.37916666666666671 -0.4654934209204486 0.34583333333333338 -0.49999999999999994 -0.69642857142857129 -0.53906249999999989 0.4516586764216684 1.0023980098989445 1.0000000180025095e-35 1.2455144231839703 1.0000000180025095e-35
decision_type=2 2 2 2 2 2 2 2 2 2 2 2 2 2 2 2 2 2 2 2 2 2 2 2 2 2 2 2 2 2
left_child=1 -1 -3 4 5 7 27 8 9 18 11 12 -11 21 -13 -16 -17 -18 19 -2 -21 -10 23 -6 25 -25 -26 -5 29 -29
right_child=3 2 -4 6 22 -7 -8 -9 13 10 -12 14 -14 -15 15 16 17 -19 -20 20 -22 -23 -24 24 26 -27 -28 28 -30 -31
leaf_value=-0.015866096092669733 0.0083094073447658248 -0.024625891819482798 0.19652733857744803 -0.018761509601491661 0.10613035115721199 0.1072812057037633 0.079407556162740964 -0.015363817805885346 0.075019840627735174 0.018354153482928688 0.24154797831099659 -0.023594659009856741 0.2111956428138515 -0.0042098495254807664 -0.031216618368941126 0.12679128709999801 0.12132938520394108 -0.0016309484895038547 -0.026764487890968577 0.021745570325862409 0.17792897368824395 0.20870931934119993 -0.0025734483242918632 -0.0094082757720339791 -0.025986700450473549 0.1701346532817265 0.075915820801734035 -0.019600677528023379 0.11531315636558842 0.073324978582347405
leaf_weight=1739719.2121582031 501797.13859558105 67829.047805786133 22748.475112915039 655789.8049621582 34293.836273193359 33853.239028930664 28247.832778930664 182421.87992858887 29526.526138305664 22792.754425048828 21285.872024536133 122244.7852935791 25779.202209472656 26960.918853759766 46393.467422485352 44149.834411621094 22913.869812011719 54694.274658203125 181407.58880615234 22032.080383300781 19819.056549072266 20339.556915283203 1468191.9766693115 21183.164733886719 100367.7488861084 21036.952072143555 25019.241607666016 214476.59098815918 30714.571228027344 56409.155548095703
leaf_count=6630 1313 185 25 1938 96 92 75 465 68 60 51 381 65 68 125 98 63 151 495 49 51 40 4193 57 270 55 59 644 70 163
internal_value=0 -0.0135509 0.0309166 0.00530526 0.00918107 0.0184678 -0.00668234 0.0162317 0.0211913 0.0168436 0.0415279 0.0289673 0.120704 0.0826096 0.0136233 0.0406806 0.0680757 0.0346732 0.00457878 0.0150376 0.0957084 0.12955 0.00151624 0.0312559 0.0159358 0.0800523 -0.00565334 -0.00922244 0.011519 -0.000249814
internal_weight=0 1.8303e+06 90577.5 4.03414e+06 3.0485e+06 1.37841e+06 985638 1.34456e+06 1.16214e+06 1.08531e+06 360254 338968 48572 76827 290396 168151 121758 77608.1 725056 543648 41851.1 49866.1 1.67009e+06 201901 167607 42220.1 125387 957390 301600 270886
internal_count=18095 6840 210 11255 8365 3635 2890 3543 3078 2902 994 943 125 176 818 437 312 214 1908 1413 100 108 4730 537 441 112 329 2815 877 807
is_linear=0
shrinkage=0.1


Tree=13
num_leaves=31
num_cat=0
split_feature=1 3 40 2 32 28 8 34 0 7 1 1 0 27 3 0 8 0 0 50 31 8 8 5 0 0 1 7 4 5
split_gain=41624.4 20047.5 81369.7 20468.2 20098.4 20064.3 34496.3 37340.1 19549.5 15156.8 31958.8 44767.4 41196.6 32215 38234.8 30729.8 23346.2 34491.7 16858.3 31290.8 73212.5 33609.8 15342.1 33168.7 14803.3 13658.8 13576.8 37424.1 13634.3 12538.6
threshold=-0.061314074866879495 -0.49999999999999994 1.0000000180025095e-35 -0.74999999999999989 1.0000000180025095e-35 1.0000000180025095e-35 0.88049014866757347 1.0000000180025095e-35 0.69583333333333353 -1.0000000180025095e-35 -0.51992554107776334 -0.40634671637441427 0.56250000000000033 1.0000000180025095e-35 1.0000000180025095e-35 1.3125000000000004 -0.4376717384933429 -0.012500000000000011 -0.51250000000000007 1.0000000180025095e-35 1.0000000180025095e-35 -0.25882020443641196 2.2544822604968391 0.2678571428571429 -0.96250000000000024 2.0875000000000008 -0.049403175796003632 -1.0000000180025095e-35 -1.0703124999999998 -1.0178571428571426
decision_type=2 2 2 2 2 2 2 2 2 2 2 2 2 2 2 2 2 2 2 2 2 2 2 2 2 2 2 2 2 2
left_child=1 2 4 -3 -1 9 8 -8 -7 10 16 12 13 -12 -15 -13 17 -5 19 -11 21 -21 -20 -24 -2 26 27 -26 -28 -30
right_child=24 3 -4 5 -6 6 7 -9 -10 18 11 15 -14 14 -16 -17 -18 -19 22 20 -22 -23 23 -25 25 -27 28 -29 29 -31
leaf_value=-0.014037859217341537 -0.036953226136451071 -0.035476541106442307 0.17277639128293013 -0.047027474307350624 0.082394664640269455 -0.02188454916066692 -0.014017281497485668 0.15479288295427618 0.061991432300987685 -0.029499831611255148 -0.012097359169431672 -0.016919507904055046 0.19293533204056948 0.22397447511844748 0.0063430940522116938 0.095311264682443525 -0.042979734119567868 0.15291534374387117 -0.035037663785541996 0.097886958079604458 0.2476141723528168 -0.039090724586524045 -0.048226491855644059 0.12739776437301906 0.13684334662082936 -0.018071875636511549 -0.035012842631730164 -0.010051199050665843 -0.013077618532653058 0.010662432584864118
leaf_weight=216389.06817626953 77555.126342773438 373928.25984191895 29051.292083740234 18589.596160888672 24011.146392822266 131459.71318054199 21808.818572998047 32824.910873413086 35236.437194824219 140221.11561584473 48359.204833984375 231521.41401672363 22366.176818847656 16404.96142578125 15893.773727416992 27270.579513549805 203632.47230529785 16100.174896240234 589455.75477600098 26965.483245849609 14992.867401123047 53357.72624206543 25393.965957641602 18652.559204101562 30031.560791015625 201042.42437744141 72615.63606262207 41050.829727172852 241181.27436828613 2868736.0594940186
leaf_count=636 287 1511 41 74 58 458 60 87 95 504 190 830 62 52 53 81 816 50 2300 90 52 192 73 43 42 606 225 85 834 7608
internal_value=0 -0.0109566 0.0146971 -0.0143049 -0.00440612 -0.00962193 0.0184466 0.0874068 -0.00415465 -0.0138504 -0.00162791 0.0171008 0.0728505 0.0395511 0.116882 -0.00509296 -0.0300615 0.0457696 -0.022291 0.000550833 0.044759 0.0068943 -0.0307837 0.0261457 0.00625359 0.00722356 0.00878658 0.0520102 0.00782117 0.00882133
internal_weight=0 2.33389e+06 269452 2.06444e+06 240400 1.69051e+06 221330 54633.7 166696 1.46918e+06 600138 361816 103024 80657.9 32298.7 258792 238322 34689.8 869039 235537 95316.1 80323.2 633502 44046.5 3.53221e+06 3.45466e+06 3.25362e+06 71082.4 3.18253e+06 3.10992e+06
internal_count=18095 8408 735 7673 694 6162 700 147 553 5462 2208 1268 357 295 105 911 940 124 3254 838 334 282 2416 116 9687 9400 8794 127 8667 8442
is_linear=0
shrinkage=0.1


Tree=14
num_leaves=31
num_cat=0
split_feature=1 3 28 8 1 44 8 8 1 1 0 4 4 51 4 8 8 4 1 36 0 8 0 4 5 51 0 3 50 0
split_gain=38110.7 18598.2 21822 37555.2 53215.8 24567.3 30816.7 174429 44714.9 67405.3 33032.2 85544.2 122127 20021.6 15914.3 16069.5 57622.8 28877 13715.9 17273.2 28126.6 20419.8 13706.9 13605.4 12695.5 28722.1 12362.5 13072.9 26966 39114.2
threshold=-0.061314074866879495 0.50000000000000011 1.0000000180025095e-35 0.88049014866757347 -0.24296335944229785 1.0000000180025095e-35 -0.36378563176370216 -0.37811248013398419 -0.65682703185655045 -0.73154588722025682 -0.65416666666666667 0.023437500000000003 0.50781250000000011 1.0000000180025095e-35 2.0703125000000004 -0.12687426762136481 -0.16370426730452983 -0.53906249999999989 -0.55430535254322499 1.0000000180025095e-35 -0.10416666666666677 2.5416325690961252 -0.96250000000000024 0.10156250000000001 0.44642857142857145 1.0000000180025095e-35 2.0875000000000008 -0.49999999999999994 1.0000000180025095e-35 -0.17916666666666667
decision_type=2 2 2 2 2 2 2 2 2 2 2 2 2 2 2 2 2 2 2 2 2 2 2 2 2 2 2 2 2 2
left_child=1 2 5 13 23 18 7 8 9 -7 11 -8 -13 -4 15 16 17 -12 -1 21 -21 -20 -2 -5 -3 -26 27 28 -24 -30
right_child=22 24 3 4 -6 6 10 -9 -10 -11 14 12 -14 -15 -16 -17 -18 -19 19 20 -22 -23 26 -25 25 -27 -28 -29 29 -31
leaf_value=-0.043971073225643802 -0.036474941967680335 -0.036276852176256424 -0.017373680784810983 0.080230537091748474 0.21069722697966531 -0.032531859099123137 -0.02351109858764781 0.28368036906709387 -0.023762976535051952 0.26712968977041923 0.080441668796455021 0.38317321303449248 -0.0053108829014419032 0.071195169287129531 0.071970059150647955 -0.029488818072543339 0.16497787008448664 -0.044197219393413867 -0.025214489108204109 0.1448366144403446 -0.022104654468986493 0.085211430400046667 0.0034080532264121575 -0.046192579158387169 -0.020800379959822667 0.1033190745532569 -0.017495856513628706 0.006320463841412792 -0.016691645436651917 0.10701322802481182
leaf_weight=232364.87568664551 74741.519943237305 390977.58377075195 134318.58712768555 16272.899719238281 23081.0517578125 15714.188949584961 60776.302734375 24840.973892211914 140014.23402404785 14371.157699584961 23543.112518310547 15285.974578857422 17194.818359375 31510.885848999023 19253.117691040039 447732.06883239746 20348.423751831055 88327.153747558594 379315.3741607666 17299.838226318359 24223.389663696289 17519.251251220703 170157.12347412109 17849.897109985352 118091.68655395508 22138.989044189453 197441.8429107666 2997192.276763916 38221.503723144531 77157.318634033203
leaf_count=907 287 1557 459 56 35 55 211 39 482 53 86 53 59 82 66 1631 72 325 1388 63 87 48 419 54 461 79 606 8101 97 177
internal_value=0 -0.0105964 -0.00569873 0.023557 0.0934234 -0.00988647 0.00103016 0.0361522 3.51114e-06 0.11061 -0.00885734 0.0465053 0.177516 -0.000543751 -0.0174737 -0.0204431 0.0101884 -0.0179668 -0.0243298 -0.0139182 0.0474481 -0.0203394 0.00589658 0.0140974 -0.0270184 -0.00120483 0.00680657 0.00826826 0.0287137 0.0660335
internal_weight=0 2.31237e+06 1.78116e+06 223033 57203.8 1.55812e+06 887402 194941 170100 30085.3 692461 93257.1 32480.8 165829 599204 579951 132219 111870 670723 438358 41523.2 396835 3.55491e+06 34122.8 531208 140231 3.48017e+06 3.28273e+06 285536 115379
internal_count=18095 8408 6311 686 145 5625 3132 629 590 108 2503 323 112 541 2180 2114 483 411 2493 1586 150 1436 9687 110 2097 540 9400 8794 693 274
is_linear=0
shrinkage=0.1


Tree=15
num_leaves=31
num_cat=0
split_feature=1 8 38 8 23 3 44 42 4 5 5 8 3 0 0 35 4 1 27 8 4 8 0 36 1 0 39 1 8 5
split_gain=35029.5 17703.3 45589.4 20848.9 26956.6 16344.3 16939.9 34469.9 45469.9 93216.3 162803 39577.5 35053.4 49125.5 19217.1 27031.4 42284.2 18938.2 17324.7 16525.6 15219.2 12895 12695.1 12466 22911.5 21869.6 11913.1 14756.8 33840.5 13357.1
threshold=-0.061314074866879495 2.2544822604968391 1.0000000180025095e-35 2.6648460361402844 1.0000000180025095e-35 0.50000000000000011 1.0000000180025095e-35 1.0000000180025095e-35 -0.054687499999999993 0.12500000000000003 -0.1964285714285714 -0.16929044685802422 -0.49999999999999994 2.7041666666666675 -0.44583333333333336 1.0000000180025095e-35 -0.039062499999999993 -0.8294984582618069 1.0000000180025095e-35 0.79028397162598607 -0.97656249999999989 0.23690180406455741 -0.96250000000000024 1.0000000180025095e-35 -0.43337277663645835 0.079166666666666594 1.0000000180025095e-35 -0.049403175796003632 -0.42564201725274398 -1.0178571428571426
decision_type=2 2 2 2 2 2 2 2 2 2 2 2 2 2 2 2 2 2 2 2 2 2 2 2 2 2 2 2 2 2
left_child=1 5 3 4 -3 6 17 12 -9 10 11 -10 13 18 15 19 -17 -1 -8 -14 21 -19 -2 -22 -25 -26 27 28 -24 -29
right_child=22 2 -4 -5 -6 -7 7 8 9 -11 -12 -13 14 -15 -16 16 -18 20 -20 -21 23 -23 26 24 25 -27 -28 29 -30 -31
leaf_value=0.083282984645866073 -0.035985194791379946 0.1192491692919242 0.11963237788398512 -0.044187427622232371 -0.036712129276781871 -0.02886809555163929 -0.022306605640284825 -0.017816301410354157 0.17019252664795548 -0.030078238121635837 0.37413548315892881 -0.017404594170745222 -0.030208753935350493 0.15706492905197683 -0.029283527916021984 0.16714331614637359 -0.040599786291942858 -0.009725940516099138 0.067792697820389977 0.062098775538002672 -0.029889800733148338 0.12490619873540126 0.11914662027662443 -0.0451964445550605 0.15710558602143981 -0.012298931722065733 -0.017612114100738381 -0.015468832519220039 -0.019804453702341979 0.0086949152940855225
leaf_weight=17399.947219848633 72064.447372436523 23057.958099365234 36816.058059692383 66564.760025024414 21337.681213378906 478517.61810302734 67974.728057861328 88344.698364257812 17293.70866394043 48713.936828613281 22206.971054077148 32157.484130859375 101438.18617248535 27492.955108642578 465200.3332824707 23756.854721069336 16674.375900268555 16434.367004394531 31107.998504638672 23979.391464233398 594295.42178344727 12544.096054077148 36908.94677734375 29352.899871826172 16408.846878051758 14228.539489746094 194866.67687988281 247703.56047058105 33376.969772338867 2991556.2331695557
leaf_count=46 287 54 81 207 63 1980 206 324 62 164 54 105 344 11 1807 82 54 61 95 71 2271 46 29 116 53 51 539 861 95 7876
internal_value=0 -0.0102716 0.0232064 -0.00878719 0.04429 -0.0125775 -0.00790125 0.00068249 0.036666 0.0766522 0.149209 0.0482005 -0.00923053 0.0387974 -0.018864 0.0103624 0.0814672 -0.0197398 0.0059809 -0.0125598 -0.0223634 0.048553 0.00556159 -0.0255043 0.0179407 0.078431 0.00641596 0.00783074 0.0531623 0.00684713
internal_weight=0 2.2933e+06 147776 110960 44395.6 2.14552e+06 1.66701e+06 966342 208717 120372 71658.2 49451.2 757625 126576 631049 165849 40431.2 700664 99082.7 125418 683264 28978.5 3.57648e+06 654286 59990.3 30637.4 3.50441e+06 3.30955e+06 70285.9 3.23926e+06
internal_count=18095 8408 405 324 117 8003 6023 3379 709 385 221 167 2670 312 2358 551 136 2644 301 415 2598 107 9687 2491 220 104 9400 8861 124 8737
is_linear=0
shrinkage=0.1


Tree=16
num_leaves=31
num_cat=0
split_feature=1 3 28 8 4 44 8 30 0 4 1 19 1 4 7 8 4 1 0 1 36 0 8 5 51 1 0 0 3 50
split_gain=32159.6 16906.2 17567.6 31722.8 37300.6 20986.5 25453.9 39784.8 31539.5 84409.3 23835.8 105272 23877.5 35428.9 31123.8 38812.5 23362.2 18523.9 18008.7 14080.2 14622.4 17415.3 17145.2 12851.2 24252.1 12627.4 11954.9 11671.9 12052.1 21815.2
threshold=-0.066688947133566004 0.50000000000000011 1.0000000180025095e-35 0.88049014866757347 -0.054687499999999993 1.0000000180025095e-35 -0.1044258128945862 1.0000000180025095e-35 -0.65416666666666667 0.023437500000000003 -0.65682703185655045 1.0000000180025095e-35 -0.34926386907197576 -0.53906249999999989 -1.0000000180025095e-35 -0.39607766093291591 2.0703125000000004 -0.66314204529873633 1.9958333333333342 -0.55430535254322499 1.0000000180025095e-35 -0.10416666666666677 2.5416325690961252 0.44642857142857145 1.0000000180025095e-35 -0.74085601606727824 -0.96250000000000024 2.0875000000000008 -0.49999999999999994 1.0000000180025095e-35
decision_type=2 2 2 2 2 2 2 2 2 2 2 2 2 2 2 2 2 2 2 2 2 2 2 2 2 2 2 2 2 2
left_child=1 2 5 17 -5 19 7 10 9 -8 11 -7 -12 -14 15 -15 -10 25 -19 -1 22 -22 -21 -3 -25 -4 -2 28 29 -28
right_child=26 23 3 4 -6 6 8 -9 16 -11 12 -13 13 14 -16 -17 -18 18 -20 20 21 -23 -24 24 -26 -27 27 -29 -30 -31
leaf_value=-0.043623169100026449 -0.03564242939808844 -0.036015524078607683 0.0041045123057434716 0.16349726839556583 0.008737700038993941 -0.023849509228261765 -0.038614731153633085 0.1042988316060845 -0.028546945401534088 0.18323444519638513 -0.03651227029717357 0.25527557852499733 0.12948376075811449 -0.02706872995453424 -0.043807172901064159 0.15855488210133037 0.097099826343113663 -0.032149494123933663 0.086186863632728095 -0.023683182183974603 0.10637101044605474 -0.019697395830957986 0.073281448942508431 -0.019242402549536259 0.092861385297711041 0.13079521520152701 0.003421688111012967 -0.017590948843402142 0.0055157802963139522 0.058024971092794399
leaf_weight=218970.36366271973 70302.100494384766 364643.38310241699 16026.919052124023 29285.237564086914 33264.173675537109 43364.033187866211 44322.924835205078 49137.980239868164 418870.01924133301 27975.05290222168 127440.5590057373 19627.41438293457 25681.082916259766 23065.710845947266 67245.008422851562 22015.765213012695 15340.095947265625 116797.60079956055 14451.228332519531 356162.20846557617 21564.752578735352 22277.129211425781 19219.313491821289 112042.78109741211 23313.092376708984 15452.794158935547 172906.18835449219 198027.33027648926 3055541.8730163574 126844.50582885742
leaf_count=907 290 1546 53 62 81 157 155 81 1580 77 486 68 83 73 228 65 48 404 29 1376 62 84 48 457 76 51 423 614 8153 278
internal_value=0 -0.0100335 -0.00539439 0.0206688 0.0811955 -0.00925141 0.000724472 0.0203771 -0.0139256 0.0472278 0.00782148 0.0631228 -0.00530163 0.0235192 -0.000707378 0.0635814 -0.024108 -0.00259631 -0.0191199 -0.023071 -0.012336 0.0423125 -0.0187186 -0.0262478 6.58347e-05 0.0662951 0.00519266 0.00600059 0.00739295 0.026528
internal_weight=0 2.24756e+06 1.74756e+06 225278 62549.4 1.52228e+06 884086 377578 506508 72298 328440 62991.4 265448 138008 112326 45081.5 434210 162729 131249 638194 419223 43841.9 375382 499999 135356 31479.7 3.62362e+06 3.55332e+06 3.35529e+06 299751
internal_count=18095 8337 6258 680 143 5578 3101 1241 1860 232 1160 225 935 449 366 138 1628 537 433 2477 1570 146 1424 2079 533 104 9758 9468 8854 701
is_linear=0
shrinkage=0.1


Tree=17
num_leaves=31
num_cat=0
split_feature=1 3 28 8 34 44 8 8 1 1 0 31 0 51 8 34 8 8 4 1 51 27 5 38 0 0 39 8 8 20
split_gain=29523 15333 17321.3 23176.9 29832.8 19699.1 23378.4 83322.5 32389.3 50433.2 24430.5 55715.4 18555.9 15129.3 14375.6 34623.9 14529.4 39802.7 24640.8 13401.7 12409.5 35012.1 11928.1 21991.9 57015.6 10913.1 10685.8 13322.8 47495.4 19518.3
threshold=-0.061314074866879495 0.50000000000000011 1.0000000180025095e-35 0.88049014866757347 1.0000000180025095e-35 1.0000000180025095e-35 -0.36378563176370216 -0.37811248013398419 -0.65682703185655045 -0.7237138673411444 -0.65416666666666667 1.0000000180025095e-35 -0.71250000000000013 1.0000000180025095e-35 2.2544822604968391 1.0000000180025095e-35 -0.12687426762136481 -0.16370426730452983 -0.53906249999999989 -0.55430535254322499 1.0000000180025095e-35 1.0000000180025095e-35 0.44642857142857145 1.0000000180025095e-35 0.17916666666666672 -0.95416666666666694 1.0000000180025095e-35 0.045933695342987406 0.023185347958991489 1.0000000180025095e-35
decision_type=2 2 2 2 2 2 2 2 2 2 2 2 2 2 2 2 2 2 2 2 2 2 2 2 2 2 2 2 2 2
left_child=1 2 5 13 -5 19 7 8 9 -7 11 12 -8 -4 16 -16 17 18 -12 -1 -21 -22 -3 -24 -25 -2 27 28 -27 -29
right_child=25 22 3 4 -6 6 10 -9 -10 -11 14 -13 -14 -15 15 -17 -18 -19 -20 20 21 -23 23 24 -26 26 -28 29 -30 -31
leaf_value=-0.043354061184328357 -0.033069280139825803 -0.034912087785819522 -0.016169075029279417 -0.021061041174177765 0.11671449997219692 -0.033763393190148726 -0.021476351145057814 0.16068277384690791 -0.022979010750622534 0.20221336642753154 0.066373882433259451 0.19548992351428596 0.09147845752943945 0.057485700973043979 0.13862442913580542 -0.038416687374816919 -0.031034061397150748 0.11792385380580586 -0.043363634334214196 -0.020005961694356464 -0.031188364652543845 0.11464533824790855 -0.022024414486808672 -0.036812498944885148 0.2377845413618318 0.010070375329090248 -0.017174245797227882 -0.0070556186016292599 0.11334803629133904 0.019651179474608021
leaf_weight=209623.53224182129 73916.197555541992 354793.09883117676 129487.18356323242 24137.34245300293 45046.849884033203 18236.032791137695 68308.164459228516 39366.852569580078 135899.97424316406 17992.827453613281 26397.495697021484 18091.035797119141 18477.619277954102 35542.822708129883 19372.070846557617 25703.198211669922 394402.76490783691 26061.910339355469 90997.84147644043 351628.00253295898 41683.697265625 27208.415283203125 105914.1284942627 18880.957504272461 12612.198089599609 1868284.630569458 192239.98971557617 1067869.8682556152 45615.723297119141 367940.95159912109
leaf_count=907 311 1557 459 59 86 60 214 39 482 48 86 48 61 82 43 84 1554 74 339 1343 154 89 420 77 43 4811 538 2886 95 1046
internal_value=0 -0.00961806 -0.00526274 0.0200619 0.0686465 -0.00914086 0.00035907 0.0294352 -0.000581846 0.0834329 -0.00858156 0.0358509 0.0025729 -0.000305822 -0.0165755 0.0376705 -0.0211216 0.00613034 -0.018688 -0.0226987 -0.0124022 0.0264075 -0.0252241 -0.000209219 0.0731566 0.00496004 0.00575367 0.0070695 0.0125319 -0.000211725
internal_weight=0 2.25587e+06 1.76367e+06 234214 69184.2 1.52945e+06 899308 211496 172129 36228.9 687812 104877 86785.8 165030 582935 45075.3 537860 143457 117395 630144 420520 68892.1 492200 137407 31493.2 3.61587e+06 3.54195e+06 3.34971e+06 1.9139e+06 1.43581e+06
internal_count=18095 8408 6311 686 145 5625 3132 629 590 108 2503 323 275 541 2180 127 2053 499 425 2493 1586 243 2097 540 120 9687 9376 8838 4906 3932
is_linear=0
shrinkage=0.1


Tree=18
num_leaves=31
num_cat=0
split_feature=1 19 31 1 3 50 23 4 1 3 1 8 4 1 1 1 0 0 8 7 1 20 51 8 1 4 0 5 4 0
split_gain=27610.2 64160.4 56653.5 36473.5 43925.9 31717.5 39388 57111.5 54523.9 18125.2 62982.2 29218.1 17982 20078.2 16945.1 23358.7 36040.1 68533.1 52569.2 21801.9 30104.7 22608.5 83700.9 110418 21527.6 22884.5 19725.8 33851.8 15981.8 16581.8
threshold=-0.55430535254322499 1.0000000180025095e-35 1.0000000180025095e-35 -0.65682703185655045 -0.49999999999999994 1.0000000180025095e-35 1.0000000180025095e-35 0.39843750000000006 -0.7237138673411444 -0.49999999999999994 -0.50825817495621695 -0.91710618799635546 -0.94531249999999989 0.33578742676734236 1.1599714093455162 1.381012719168228 0.17916666666666672 0.27916666666666662 -0.72191788286246561 -1.0000000180025095e-35 -0.19942433655311106 1.0000000180025095e-35 1.0000000180025095e-35 -0.15898299767224294 0.050730637751745945 0.13281250000000003 -0.62916666666666676 -0.053571428571428562 2.1171875000000004 -0.65416666666666667
decision_type=2 2 2 2 2 2 2 2 2 2 2 2 2 2 2 2 2 2 2 2 2 2 2 2 2 2 2 2 2 2
left_child=1 -1 3 4 -3 6 -6 8 -8 10 -2 -12 -13 -14 19 16 26 -18 -19 21 -21 28 24 -24 -23 -26 27 -16 29 -11
right_child=9 2 -4 -5 5 -7 7 -9 -10 14 11 12 13 -15 15 -17 17 18 -20 20 -22 22 23 -25 25 -27 -28 -29 -30 -31
leaf_value=-0.039392840942961319 0.13498106231603907 0.2183318378289501 0.18829757576655048 -0.045286767278408406 -0.036803716179447575 -0.046801378691968015 0.074017173086587076 -0.038712293173410989 0.34509286169230896 0.034982675494227712 0.11558241405744599 0.07048013526831079 -0.022156376212477933 0.022087977209153412 -0.030530026988493865 -0.019586844879472137 0.19294076342659547 0.15808072141272175 0.0055551217832699373 -0.02808732677624361 -0.0018526272887167438 -0.013168463998857755 0.28871327143908732 -0.0042127546420404902 -0.0013629243582624819 0.1350021476934917 -0.018846946095161358 0.12695580211310492 0.078480630123161352 -0.0081300702486950746
leaf_weight=487009.24426269531 43358.371170043945 12834.362655639648 19549.535980224609 74731.036178588867 24952.208786010742 41081.752426147461 15954.756637573242 15077.936676025391 13871.168655395508 106650.45565795898 24446.59162902832 36662.005416870117 231771.4676361084 183989.29498291016 26223.52848815918 130915.98603820801 32525.022033691406 27572.026824951172 125226.18330383301 522479.69993591309 2686231.3591766357 139860.15425109863 27274.547409057617 24362.956176757812 25807.489181518555 23523.80632019043 147981.40594482422 28463.612228393555 26264.567733764648 545569.00588989258
leaf_count=1994 45 34 74 331 104 168 64 61 50 348 45 90 636 421 82 330 58 41 303 2241 7455 463 41 79 78 65 401 75 83 1835
internal_value=0 -0.0192077 0.0258747 0.00987842 0.0431861 0.0229233 0.0639279 0.119903 0.200088 0.00188811 0.0195893 0.00909747 0.00334352 -0.00257661 -9.35482e-05 0.0169384 0.0292628 0.0611348 0.0330781 -0.00223453 -0.00612447 0.0113426 0.0376647 0.150509 0.00686521 0.0636632 0.000118449 0.0514382 0.00199957 -0.00108029
internal_weight=0 705062 218053 198503 123772 110938 69856.1 44903.9 29825.9 5.16716e+06 520228 476869 452423 415761 4.64693e+06 518908 387992 185323 152798 4.12802e+06 3.20871e+06 919313 240829 51637.5 189191 49331.3 202669 54687.1 678484 652219
internal_count=18095 2880 886 812 481 447 279 175 114 15215 1237 1192 1147 1057 13978 1290 960 402 344 12688 9696 2992 726 120 606 143 558 157 2266 2183
is_linear=0
shrinkage=0.1


Tree=19
num_leaves=31
num_cat=0
split_feature=1 8 8 35 8 34 0 0 4 0 40 8 7 1 20 1 0 0 1 8 50 2 4 50 22 0 29 0 23 48
split_gain=25698 23561.4 24989.3 22090 35911.8 34459.8 41476.1 82377.2 33095.7 38000.5 25229.5 35391.7 21781.7 26484.8 31138.3 35143.8 21727.2 38914.2 25530 23147.9 31023.6 57729.5 21725.3 34923.3 20875.7 36034.5 23077.5 22571.8 20444.2 46884.8
threshold=0.34935385823705917 -0.097982852809911022 -0.48230352605616639 1.0000000180025095e-35 -0.14561765730770512 1.0000000180025095e-35 0.42916666666666675 0.087499999999999925 -0.054687499999999993 -0.45416666666666677 1.0000000180025095e-35 -0.36378563176370216 -1.0000000180025095e-35 -0.44453350435314676 1.0000000180025095e-35 -0.14365211654144108 0.21250000000000008 0.22916666666666677 0.37300212675380612 1.5281696917429926 1.0000000180025095e-35 1.0000000180025095e-35 -0.74218749999999989 1.0000000180025095e-35 1.0000000180025095e-35 0.25416666666666671 1.0000000180025095e-35 -0.11250000000000011 1.0000000180025095e-35 1.0000000180025095e-35
decision_type=2 2 2 2 2 2 2 2 2 2 2 2 2 2 2 2 2 2 2 2 2 2 2 2 2 2 2 2 2 2
left_child=1 2 22 10 5 -5 7 8 9 -7 12 -12 13 -4 -15 -16 18 -18 -2 -20 -21 -22 23 -1 26 -26 -14 -28 29 -19
right_child=16 -3 3 4 -6 6 -8 -9 -10 -11 11 -13 24 14 15 -17 17 28 19 20 21 -23 -24 -25 25 -27 27 -29 -30 -31
leaf_value=-0.018777814923407406 0.080023108729074977 -0.013343912676027213 -0.021014026127882626 -0.035129365422559303 0.16096035492862812 0.21071022267807549 -0.037767015180495404 0.30246822225983561 -0.041637784609675849 0.0086581173749861167 0.10831289038940305 -0.011174220857360627 -0.029705041613506317 0.015111468992169384 0.16734336375473657 0.011228802185901346 0.12111348786679457 0.019322096431088922 -0.0078599766090949163 -0.0095883927638515821 -0.0097598834710068971 0.19244550142307532 -0.020407890846462176 0.13580780303621295 0.13201168601084548 -0.049657774353058147 0.1392176730834741 -0.013728331055755709 -0.0011188650727118209 0.12960929595056367
leaf_weight=36743.680908203125 37740.662185668945 1959668.4959106445 101657.05586242676 58143.685729980469 22751.787979125977 18129.029174804688 30968.195785522461 15858.06591796875 25069.306076049805 19130.537933349609 53171.659820556641 46439.128189086914 366898.88467407227 132085.31271362305 34620.940444946289 24713.247680664062 35684.227813720703 492109.50187683105 1136902.8826599121 63612.815460205078 27989.177047729492 28492.07063293457 514373.67102050781 24265.293304443359 24342.812484741211 19798.034484863281 16665.172897338867 22919.273834228516 441821.50975036621 41822.02001953125
leaf_count=115 97 6998 384 210 80 55 110 46 89 70 58 151 1301 422 64 68 54 1145 3189 170 71 69 1548 75 69 60 47 80 1127 73
internal_value=0 -0.00598159 0.00298671 0.0122868 0.0430854 0.0270548 0.0601786 0.0989729 0.0471979 0.106969 0.00534591 0.0526072 -0.000984233 0.0202367 0.0421437 0.10232 0.00756266 0.0185445 -0.00101629 -0.00344947 0.0383037 0.092243 -0.0137158 0.042706 -0.0147859 0.0505292 -0.0218786 0.0506623 0.0147935 0.0279608
internal_weight=0 3.56841e+06 1.60874e+06 1.03336e+06 190051 167299 109155 78186.9 62328.9 37259.6 843312 99610.8 743701 293077 191420 59334.2 2.30617e+06 1.01144e+06 1.29474e+06 1.257e+06 120094 56481.2 575383 61009 450624 44140.8 406483 39584.4 975753 533932
internal_count=18095 12100 5102 3364 660 580 370 260 214 125 2704 209 2495 938 554 132 5995 2399 3596 3499 310 140 1738 190 1557 129 1428 127 2345 1218
is_linear=0
shrinkage=0.1


Tree=20
num_leaves=31
num_cat=0
split_feature=1 19 4 4 8 5 3 8 31 51 5 3 27 1 8 4 20 4 1 5 4 4 1 8 3 42 4 38 4 0
split_gain=24419 59851 50271 104914 112767 43297.4 16986.5 22064.3 22185.3 25403.4 36180.6 17356 27319.5 39260.1 64069.4 27191.7 21566.9 35087.8 17169.9 19911.4 27932.9 79026.5 42235.3 37529.3 57825.3 32359.8 21842 37961.7 21237.3 19326.1
threshold=-0.55430535254322499 1.0000000180025095e-35 0.039062500000000007 -0.25781249999999994 0.84817236208963354 -0.16071428571428567 0.50000000000000011 -0.15898299767224294 1.0000000180025095e-35 1.0000000180025095e-35 0.33928571428571436 0.83333333333333337 1.0000000180025095e-35 0.51747450715797971 0.0088171198550056808 1.4140625000000002 1.0000000180025095e-35 -0.023437499999999997 -0.50825817495621695 0.5892857142857143 0.47656250000000006 0.55468750000000011 1.3482397066421368 -0.27503874328744454 -1.0000000180025095e-35 1.0000000180025095e-35 -0.82031249999999989 1.0000000180025095e-35 -0.72656249999999989 0.6625000000000002
decision_type=2 2 2 2 2 2 2 2 2 2 2 2 2 2 2 2 2 2 2 2 2 2 2 2 2 2 2 2 2 2
left_child=1 -1 3 -3 5 -5 7 8 18 -10 -11 -8 15 -14 -15 16 -13 -18 -2 20 22 -22 26 25 -25 -23 27 -20 -21 -27
right_child=6 2 -4 4 -6 -7 11 -9 9 10 -12 12 13 14 -16 -17 17 -19 19 28 21 23 -24 24 -26 29 -28 -29 -30 -31
leaf_value=-0.038874849518816347 0.069225795745002858 -0.020623116161019483 -0.019061136202703766 0.22807598566897644 0.4304098440803088 -0.0009088047199272859 -0.018389568644074542 -0.0018857262599951395 -0.021169255043105326 -0.0017767194515684696 0.16682620622661382 -0.028613405510030721 -0.0068146904704433093 -0.0027239064156127264 0.18247470167897864 0.11847726790320995 0.14335376598231572 -0.031067219596711604 0.017637074250658653 0.06518753187531677 0.17295922917572204 -0.015865589354985037 0.11204783719441778 -0.033159368999498534 0.179755439587306 0.020042244762590894 8.695650110874525e-05 0.16751992154388395 -0.020106251543349312 0.13143348849179554
leaf_weight=463615.87837219238 64149.566345214844 53078.70930480957 121979.8790435791 13533.291397094727 13342.929702758789 21181.376586914062 731621.87442016602 2194283.5777435303 297069.94480895996 41141.681503295898 18428.487594604492 258302.14530944824 84345.363250732422 36252.059616088867 38537.165878295898 15501.5283203125 20476.024261474609 26407.980773925781 76806.980484008789 33616.180191040039 43159.877883911133 154870.65951538086 40097.958099365234 20197.841369628906 34618.607849121094 35412.70100402832 652437.70381164551 21664.670700073242 221808.99307250977 27805.103698730469
leaf_count=1994 108 220 495 46 38 87 2392 6631 858 113 46 845 294 94 68 39 63 84 207 90 79 403 76 52 93 83 1822 50 590 35
internal_value=0 -0.0183949 0.0241606 0.0762901 0.183329 0.0883596 0.001671 0.00482857 0.0130903 -0.00921791 0.0503819 -0.00869631 0.00608373 0.0399568 0.0927047 -0.0107251 -0.0172878 0.045109 0.018667 0.0162866 0.0220933 0.0472221 0.0120525 0.0273367 0.101304 0.00874494 0.00671278 0.0506129 -0.00888079 0.0690358
internal_weight=0 686732 223116 101136 48057.6 34714.7 5.18901e+06 3.97757e+06 1.78329e+06 356640 59570.2 1.21144e+06 479822 159135 74789.2 320688 305186 46884 1.42665e+06 1.3625e+06 1.10707e+06 316065 791007 272905 54816.4 218088 750909 98471.7 255425 63217.8
internal_count=18095 2880 886 391 171 133 15215 11336 4705 1017 159 3879 1487 456 162 1031 992 147 3688 3580 2900 745 2155 666 145 521 2079 257 680 118
is_linear=0
shrinkage=0.1


Tree=21
num_leaves=31
num_cat=0
split_feature=1 8 8 5 28 8 8 1 1 1 30 8 27 19 5 21 7 51 20 0 8 4 0 5 44 7 8 0 1 0
split_gain=22805.7 14580.8 34811.3 36012.7 22977.7 15893.8 49482.7 12263.9 13506.3 19288.5 30276.9 28027.7 18109.9 42104.4 47323.6 25072.3 16574.9 24289.3 49887.2 16389 16323.7 14619.4 13618.9 13354.2 21878.7 12249.4 11321.5 10486.3 29744.3 10120.5
threshold=-0.061314074866879495 2.2544822604968391 2.3506056148681114 0.69642857142857151 1.0000000180025095e-35 1.1429582304710029 1.0922361744458364 -0.8443554860177297 -0.54871206983604215 -0.49000935181732491 1.0000000180025095e-35 0.75528193650224507 1.0000000180025095e-35 1.0000000180025095e-35 -0.58928571428571408 1.0000000180025095e-35 -1.0000000180025095e-35 1.0000000180025095e-35 1.0000000180025095e-35 -0.012500000000000011 1.0028033474028857 -0.53906249999999989 -0.42083333333333334 -0.1964285714285714 1.0000000180025095e-35 -1.0000000180025095e-35 1.0000000180025095e-35 -0.51250000000000007 -0.26121236266471176 -0.96250000000000024
decision_type=2 2 2 2 2 2 2 2 2 2 2 2 2 2 2 2 2 2 2 2 2 2 2 2 2 2 2 2 2 2
left_child=1 5 -3 4 -4 6 7 -1 12 10 11 25 15 -14 -15 -9 17 22 -19 -16 21 27 23 24 -11 26 -10 28 -18 -2
right_child=29 2 3 -5 -6 -7 -8 8 9 16 -12 -13 13 14 19 -17 20 18 -20 -21 -22 -23 -24 -25 -26 -27 -28 -29 -30 -31
leaf_value=0.062949204260138211 -0.03470310971722549 0.14082524609006303 -0.044625285525771746 0.11616551532738346 0.071925893429767004 -0.03589336911154329 0.1398792971446228 -0.040371648596551957 -0.011901172990776417 -0.026528425837984565 0.092391710455116655 0.14766515942010705 -0.034085397480150326 0.23418707459674054 -0.027527509392283003 0.10403150614712514 -0.042168809659104203 -0.020945767957094439 0.12966235166119625 0.094499205459510599 0.074891274581153258 -0.030931177656211319 -0.019019922356638477 -0.0074618156830711371 0.12223164188271125 -0.043623101928713402 0.084898425143974582 -0.012929697419634477 0.13333177971387042 0.0048458796399128206
leaf_weight=22958.659912109375 65886.560195922852 20956.868865966797 87297.504928588867 22828.390960693359 20980.131484985352 227022.95126342773 22399.016326904297 368936.57144165039 35659.614791870117 15707.930328369141 49119.092926025391 11740.478973388672 104531.44580078125 13726.163772583008 26919.338424682617 12428.695495605469 18167.789688110352 45536.973449707031 42538.355270385742 18618.672393798828 17403.08430480957 484514.73229980469 256021.66105651855 55436.401809692383 26677.13215637207 64753.707000732422 18274.283721923828 74996.866973876953 20614.688751220703 3605362.3620300293
leaf_count=61 287 42 276 57 30 919 78 1598 139 62 29 48 498 51 112 50 74 154 64 77 58 1949 956 199 87 301 72 307 60 9400
internal_value=0 -0.00872719 0.0211525 0.00202298 -0.0220419 -0.0109385 -0.00783876 -0.00967158 -0.010607 -0.00482842 0.0254763 0.000275834 -0.0237208 0.00409008 0.0714249 -0.0356655 -0.00997313 0.00480342 0.0517944 0.0223642 -0.0205791 -0.0233561 -0.00689313 0.0248454 0.0671009 -0.0143038 0.0208971 0.00890126 0.0511178 0.0041361
internal_weight=0 2.20677e+06 152063 131106 108278 2.0547e+06 1.82768e+06 1.80528e+06 1.78232e+06 1.23716e+06 179547 130428 545161 163796 59264.2 381365 1.05762e+06 441918 88075.3 45538 615697 598294 353843 97821.5 42385.1 118688 53933.9 113779 38782.5 3.67125e+06
internal_count=18095 8408 405 363 306 8003 7084 7006 6945 4559 589 560 2386 738 240 1648 3970 1522 218 189 2448 2390 1304 348 149 512 211 441 134 9687
is_linear=0
shrinkage=0.1


Tree=22
num_leaves=31
num_cat=0
split_feature=1 19 1 1 4 4 3 8 31 51 5 3 0 13 4 8 4 33 4 2 1 4 21 0 0 3 2 0 37 36
split_gain=21003.1 53768.4 39837.3 79553.3 42528.6 53259 15082.5 18996.3 19050.5 22058.7 33813.1 15859.6 23969.2 36121 32137.7 27784.5 15595.4 80481.7 33926 31825.6 25619.7 15979.7 15029.1 14947 16998.7 30165 18444 28425.6 17433.6 14935.1
threshold=-0.55430535254322499 1.0000000180025095e-35 -0.65097851820313879 -0.66314204529873633 -0.039062499999999993 -0.25781249999999994 0.50000000000000011 -0.15898299767224294 1.0000000180025095e-35 1.0000000180025095e-35 0.37500000000000006 0.83333333333333337 0.22083333333333341 1.0000000180025095e-35 1.5390625000000002 2.1126014880023063 0.91406250000000011 1.0000000180025095e-35 1.1640625000000002 -1.0000000180025095e-35 0.96432330304571878 0.14843750000000003 1.0000000180025095e-35 1.0000000180025095e-35 -0.2458333333333334 -0.49999999999999994 -1.0000000180025095e-35 -0.16250000000000006 1.0000000180025095e-35 1.0000000180025095e-35
decision_type=2 2 2 2 2 2 2 2 2 2 2 2 2 2 2 2 2 2 2 2 2 2 2 2 2 2 2 2 2 2
left_child=1 22 3 4 5 -3 7 8 29 -10 -11 -8 14 -14 15 -13 21 18 19 -18 -20 23 -1 24 28 -26 -27 -28 -9 -2
right_child=6 2 -4 -5 -6 -7 11 16 9 10 -12 12 13 -15 -16 -17 17 -19 20 -21 -22 -23 -24 -25 25 26 27 -29 -30 -31
leaf_value=-0.042209327790911369 0.020006062983841208 -0.0052942435519201109 -0.038907324660592317 0.25802667941244767 -0.024346512604024938 0.1774277541370575 -0.017805319263168504 -0.0038089424516492242 -0.02051890291898803 -0.0044224396026636614 0.15368908886845062 -0.026920468745441239 0.014551395665924595 0.13541818540515221 0.13223524534015946 0.08818290352250735 0.0053355639461478109 0.18916767620763686 -0.031103296027905753 0.14381682156100109 0.053225051248966662 -0.018019037998443097 0.047090810604621697 -0.011453555424798883 0.11420286431853249 -0.012381548760232269 0.12750072746853955 0.0041096490752033912 0.081948206447950533 -0.016913149299272769
leaf_weight=414715.37533569336 1343146.9803161621 31904.929321289062 74127.579116821289 16461.331604003906 76973.805480957031 31902.19075012207 718202.51359558105 461838.3196105957 290439.79667663574 43547.938430786133 19619.052398681641 274175.42478942871 142129.87796020508 29932.789001464844 14931.612930297852 22708.162612915039 37776.590209960938 25438.115661621094 183771.97761535645 29598.806762695312 44811.673446655273 650842.34191894531 19743.519287109375 520594.53854370117 38790.099456787109 97003.661056518555 30885.320953369141 47205.079681396484 24987.81916809082 119305.27641296387
leaf_count=1923 3356 126 342 41 296 81 2392 1382 858 116 43 955 384 63 31 54 110 49 525 73 102 2014 71 1626 101 328 88 154 79 332
internal_value=0 -0.0174134 0.0215272 0.0500175 0.025695 0.0860628 0.00144774 0.00439327 0.011958 -0.008871 0.0446855 -0.00837723 0.00561652 0.035578 -0.0109165 -0.0181163 -0.00186963 0.0184808 0.00380993 0.0661723 -0.0145715 -0.00536325 -0.0381511 0.0013811 0.0109167 0.0344149 0.0167387 0.0529119 0.000592797 0.0169942
internal_weight=0 665829 231370 157242 140781 63807.1 5.21168e+06 4.0096e+06 1.81606e+06 353607 63167 1.20208e+06 483878 172063 311815 296884 2.19354e+06 321397 295959 67375.4 228584 1.87215e+06 434459 1.2213e+06 700710 213884 175094 78090.4 486826 1.46245e+06
internal_count=18095 2880 886 544 503 207 15215 11336 4705 1017 159 3879 1487 447 1040 1009 6631 859 810 183 627 5772 1994 3758 2132 671 570 242 1461 3688
is_linear=0
shrinkage=0.1


Tree=23
num_leaves=31
num_cat=0
split_feature=1 3 28 8 1 1 44 42 5 5 8 3 8 4 4 19 32 8 1 36 8 0 0 5 51 44 7 1 4 4
split_gain=20110.1 12757.3 14099.8 19064.2 24296.5 17047.4 16225.2 17508.6 44514.7 70844.5 45374 21521.1 22340 17143.1 15943.6 52239 15434.6 38103.6 12306.4 12665.5 14809.8 13810.6 11782.5 17899.6 34515.1 11674.1 10968.9 12895.7 10815.3 10528.6
threshold=-0.061314074866879495 0.50000000000000011 1.0000000180025095e-35 0.88049014866757347 -0.24296335944229785 -0.66314204529873633 1.0000000180025095e-35 1.0000000180025095e-35 -1.0000000180025095e-35 -0.1964285714285714 -0.38990775544018713 -0.49999999999999994 0.36997912445511644 2.1171875000000004 -0.53906249999999989 1.0000000180025095e-35 1.0000000180025095e-35 0.79028397162598607 -0.55430535254322499 1.0000000180025095e-35 2.5416325690961252 -0.10416666666666677 0.20416666666666675 0.44642857142857145 1.0000000180025095e-35 1.0000000180025095e-35 -1.0000000180025095e-35 -0.1556359202822708 -0.054687499999999993 -0.97656249999999989
decision_type=2 2 2 2 2 2 2 2 2 2 2 2 2 2 2 2 2 2 2 2 2 2 2 2 2 2 2 2 2 2
left_child=1 2 6 5 28 25 18 11 9 10 -9 12 -8 14 15 -13 -16 -18 -1 20 29 -21 -3 -24 -25 -4 27 -7 -5 -20
right_child=-2 22 3 4 -6 26 7 8 -10 -11 -12 13 -14 -15 16 -17 17 -19 19 21 -22 -23 23 24 -26 -27 -28 -29 -30 -31
leaf_value=-0.042435752191735898 0.0038034620235527119 -0.035022212560747411 0.12620928022047992 0.058534811035882928 0.12012380118879913 -0.018396143227469075 0.04905361079485538 0.14686438850919797 -0.026772776488605161 0.19958401220627608 -0.024528338969808189 -0.014083402733822546 -0.04312083555641779 0.082198187612443241 -0.033282191225138313 0.18240137192490127 -0.046641962037265672 0.16388365181358966 0.055376039758842754 0.090741383973546322 0.064724955139987786 -0.019148143605127149 -0.024916566115611171 -0.0049682647705610516 0.17369105174536986 0.0050529799361660882 -0.043351614619172966 0.076608490773526633 -0.046512925686155913 -0.026438664005253545
leaf_weight=182971.85426330566 3694091.5879669189 295478.94158935547 15760.875778198242 19536.081878662109 35394.105819702148 42175.343170166016 111143.42523193359 20843.466705322266 87029.092407226562 30143.976852416992 59650.326568603516 88520.344772338867 34442.567932128906 17240.63249206543 396427.63218688965 15972.728912353516 22193.982376098633 14032.93293762207 16530.177581787109 23965.398910522461 20657.027694702148 21876.091430664062 106325.96658325195 37690.929489135742 15163.505081176758 16054.02799987793 70988.48779296875 21607.003997802734 19667.730834960938 324538.69900512695
leaf_count=907 9687 1386 46 48 35 158 185 58 311 58 224 357 107 59 1594 52 91 36 57 63 48 87 519 159 33 58 256 23 62 1331
internal_value=0 -0.00830094 -0.00438215 0.0180472 0.0600609 -0.000766723 -0.0080172 0.000451938 0.0267334 0.0688221 0.019853 -0.00696971 0.027247 -0.0159553 -0.0191057 0.0159512 -0.0275725 0.0349076 -0.0208906 -0.0112182 -0.0174937 0.0383007 -0.0232066 -0.00127376 0.0462877 0.0650735 -0.0163095 0.0137877 0.00583432 -0.0224734
internal_weight=0 2.18402e+06 1.72936e+06 241184 74597.9 166586 1.48818e+06 897641 197667 110638 80493.8 699974 145586 554388 537148 104493 432655 36226.9 590539 407567 361726 45841.5 454659 159180 52854.4 31814.9 134771 63782.3 39203.8 341069
internal_count=18095 8408 6311 686 145 541 5625 3132 651 340 282 2481 292 2189 2130 409 1721 127 2493 1586 1436 150 2097 711 192 104 437 181 110 1388
is_linear=0
shrinkage=0.1


Tree=24
num_leaves=31
num_cat=0
split_feature=1 8 8 51 2 0 35 23 27 0 8 1 50 13 26 5 0 23 0 0 33 0 20 1 0 23 5 0 8 1
split_gain=18708.6 19050.6 21400 22618.7 59238.2 136415 23169 28278 50834.8 28021.7 22777.2 21338.4 18746.9 36556.7 63866.4 23606.2 18282 25582.3 46737.6 55881.6 29853.2 29198.1 31233.8 21357.3 49711.3 47273.7 37588.2 20490.7 21384.8 27365
threshold=0.34935385823705917 -0.097982852809911022 -0.48230352605616639 1.0000000180025095e-35 1.0000000180025095e-35 -0.51250000000000007 1.0000000180025095e-35 1.0000000180025095e-35 1.0000000180025095e-35 -0.45416666666666677 -0.42564201725274398 -0.19942433655311106 1.0000000180025095e-35 1.0000000180025095e-35 1.0000000180025095e-35 -0.87499999999999989 0.21250000000000008 1.0000000180025095e-35 0.72083333333333355 0.62916666666666687 1.0000000180025095e-35 0.22916666666666677 1.0000000180025095e-35 0.43081309918550631 -0.42916666666666675 1.0000000180025095e-35 0.089285714285714288 -0.61250000000000016 1.344286245039586 0.82326553717934992
decision_type=2 2 2 2 2 2 2 2 2 2 2 2 2 2 2 2 2 2 2 2 2 2 2 2 2 2 2 2 2 2
left_child=1 2 12 6 10 -6 -4 8 11 -9 -5 -8 -1 15 -15 -14 23 18 19 21 -20 -18 -23 24 -2 -26 -27 28 -25 -30
right_child=16 -3 3 4 5 -7 7 9 -10 -11 -12 -13 13 14 -16 -17 17 -19 20 -21 -22 22 -24 27 25 26 -28 -29 29 -31
leaf_value=-0.027611570988564395 -0.040840893885507323 -0.012118048955399516 -0.0037066691810250575 0.083226139048912032 -0.027101469777217498 0.31692020532805221 -0.042419115856997001 0.092275416270728175 0.20980424704356038 -0.031215903572169253 -0.011420043046217628 0.090332444864178407 0.093049188889793064 0.012044306659162453 0.23766337007262611 -0.029765153852652923 0.1334712630231345 -0.0016376791438606987 -0.0075182326947753481 0.1653976877627355 0.097041377141433321 0.0035408363053093892 0.0892967766904669 0.0056799905640777908 -0.0063183480510617248 0.23380658161850218 0.048796129274028453 -0.013607022458728933 0.1580017645113983 -0.00064859931965991955
leaf_weight=344726.31716918945 49023.667007446289 1895676.5859527588 700602.76263427734 33121.656646728516 23597.032516479492 22532.470077514648 22827.147491455078 25100.5498046875 22496.151153564453 68573.27880859375 109446.98596191406 25785.636184692383 17624.211303710938 45538.219985961914 17317.699996948242 139740.7804107666 29649.145690917969 460426.92733764648 276710.96043395996 42126.89013671875 30295.856719970703 152069.26370239258 58929.847061157227 265707.50799560547 31124.800354003906 25498.9765625 19288.437408447266 878349.10258483887 22484.82958984375 21050.476486206055
leaf_count=1061 131 6998 2300 52 80 55 102 78 77 237 315 68 58 153 46 420 30 1151 697 53 47 316 105 764 78 58 49 2413 47 56
internal_value=0 -0.00531419 0.00265224 0.011069 0.0424392 0.14094 0.00422871 0.0379674 0.0855135 0.00187441 0.0105682 0.027996 -0.0130519 0.00973937 0.074206 -0.0160104 0.00619283 0.0160266 0.0298167 0.0591486 0.00279985 0.040549 0.0274917 -0.00167559 0.037653 0.088344 0.154129 -0.00581301 0.0163245 0.08129
internal_weight=0 3.51471e+06 1.61903e+06 1.05408e+06 188698 46129.5 865386 164783 71108.9 93673.8 142569 48612.8 564947 220221 62855.9 157365 2.36274e+06 1.05021e+06 589782 282775 307007 240648 210999 1.31253e+06 124936 75912.2 44787.4 1.18759e+06 309243 43535.3
internal_count=18095 12100 5102 3364 502 135 2862 562 247 315 367 170 1738 677 199 478 5995 2399 1248 504 744 451 421 3596 316 185 107 3280 867 103
is_linear=0
shrinkage=0.1


Tree=25
num_leaves=31
num_cat=0
split_feature=1 19 1 1 4 4 21 7 1 4 40 1 4 8 51 8 8 5 20 51 23 35 0 5 8 0 0 4 5 8
split_gain=17697.3 49795.5 33728.6 46589 33373.4 35366.4 13996.2 13782.2 27960 25831.8 33551.6 55954.2 31104.2 26159.2 20804.2 18993 28781.5 17116.4 16961.1 21557.6 23065.2 45463.8 22276.1 21379.8 18892.6 38720.5 17465.3 25499.8 20449.1 16360.7
threshold=-0.55430535254322499 1.0000000180025095e-35 -0.65097851820313879 -0.66314204529873633 -0.039062499999999993 -0.25781249999999994 1.0000000180025095e-35 -1.0000000180025095e-35 0.34935385823705917 -0.78906249999999989 1.0000000180025095e-35 0.17597065714293383 -0.30468749999999994 -0.61444213143296256 1.0000000180025095e-35 -0.37409049867526029 -0.36378563176370216 0.7678571428571429 1.0000000180025095e-35 1.0000000180025095e-35 1.0000000180025095e-35 1.0000000180025095e-35 1.3625000000000005 0.48214285714285721 2.2544822604968391 0.13749999999999998 -0.65416666666666667 0.039062500000000007 0.053571428571428575 -0.1044258128945862
decision_type=2 2 2 2 2 2 2 2 2 2 2 2 2 2 2 2 2 2 2 2 2 2 2 2 2 2 2 2 2 2
left_child=1 6 3 4 5 -3 -1 18 9 13 15 12 -12 -9 17 -11 -17 -15 24 20 21 23 -21 -20 26 -26 27 -2 -29 -18
right_child=7 2 -4 -5 -6 -7 -8 8 -10 10 11 -13 -14 14 -16 16 29 -19 19 22 -22 -23 -24 -25 25 -27 -28 28 -30 -31
leaf_value=-0.041701665348365266 0.00084670661510867918 -0.0050588008270346617 -0.038190626311583514 0.18020009212040483 -0.023123827726436924 0.13731938191092641 0.042742771048332157 0.13792906589509432 0.0057911356745106819 -0.040363441522515975 0.052252491032023618 0.1754317006530754 -0.048019799885130492 -0.020295455563476505 0.088198490581789232 0.11561998614443832 0.0052532720059787642 0.093164231978921097 -0.012025466514965768 0.11869221617084319 -0.023214999484878353 0.17391873198879421 0.013759205350587471 0.098474398081650052 -0.0172701996586755 0.16180563146280874 -0.0077199404598936499 0.15798815660587598 0.013633109089047846 -0.021961476361603609
leaf_weight=388255.77612304688 77548.021011352539 31736.502746582031 69494.895812988281 22034.919082641602 73426.946792602539 38745.506393432617 20672.575347900391 18776.220413208008 2379853.256362915 325126.83984375 65239.56462097168 22710.665725708008 58832.98649597168 104318.00381469727 29293.448669433594 17130.824508666992 297479.50755310059 15238.458312988281 73437.239166259766 48574.860015869141 90443.718841552734 21903.20573425293 34671.389434814453 22991.567428588867 26683.470397949219 22053.734344482422 583724.69709777832 23896.969467163086 16651.033386230469 858081.70062255859
leaf_count=1923 251 126 342 41 296 81 71 48 5995 1049 72 51 208 347 80 47 993 53 212 77 299 67 53 68 70 45 1989 63 57 3021
internal_value=0 -0.0163394 0.020297 0.0447908 0.0240571 0.0732096 -0.0374327 0.00122341 -0.0013355 -0.0106944 -0.014506 0.0311205 0.00470508 0.026702 0.0126715 -0.0189773 -0.013048 -0.00583393 0.0115125 0.0319608 0.0148039 0.0438627 0.0749887 0.014321 0.00355657 0.0637621 -0.000624332 0.0344477 0.0987092 -0.0149555
internal_weight=0 644367 235439 165944 143909 70482 408928 5.23466e+06 4.19208e+06 1.81223e+06 1.6446e+06 146783 124073 167626 148850 1.49782e+06 1.17269e+06 119556 1.04258e+06 292022 208776 118332 83246.2 96428.8 750558 48737.2 701821 118096 40548 1.15556e+06
internal_count=18095 2880 886 544 503 207 1994 15215 11964 5969 5441 331 280 528 480 5110 4061 400 3251 776 646 347 130 280 2475 115 2360 371 120 4014
is_linear=0
shrinkage=0.1


Tree=26
num_leaves=31
num_cat=0
split_feature=1 3 28 8 1 0 1 44 16 42 5 4 5 8 3 8 8 8 4 19 13 7 49 0 0 2 4 36 46 5
split_gain=16457.4 11941.8 12594.9 16938.2 19424.9 17174.3 14933.4 14763.8 14859.2 14762 35405.5 47803.8 43989.5 33013.9 18514.7 18330.5 14473.2 24531.9 18902.4 39652.2 15974.3 21976.1 32621.1 11185.6 22059.8 12464.1 31037.3 10801.5 29705.3 10374.3
threshold=-0.061314074866879495 0.50000000000000011 1.0000000180025095e-35 0.88049014866757347 -0.19942433655311106 -0.029166666666666695 -0.66314204529873633 1.0000000180025095e-35 1.0000000180025095e-35 1.0000000180025095e-35 -1.0000000180025095e-35 -0.054687499999999993 -0.1964285714285714 -0.22641404098391041 -0.49999999999999994 0.36997912445511644 2.2544822604968391 2.8099776134167649 -0.53906249999999989 1.0000000180025095e-35 1.0000000180025095e-35 -1.0000000180025095e-35 1.0000000180025095e-35 0.20416666666666675 0.23750000000000013 -1.0000000180025095e-35 -0.14843749999999997 1.0000000180025095e-35 1.0000000180025095e-35 -0.053571428571428562
decision_type=2 2 2 2 2 2 2 2 2 2 2 2 2 2 2 2 2 2 2 2 2 2 2 2 2 2 2 2 2 2
left_child=1 2 7 6 5 -5 29 8 27 14 11 -11 13 -13 15 -9 18 -18 19 -16 -20 22 -22 -3 -25 -26 -27 -1 -29 -4
right_child=-2 23 3 4 -6 -7 -8 9 -10 10 -12 12 -14 -15 16 -17 17 -19 20 -21 21 -23 -24 24 25 26 -28 28 -30 -31
leaf_value=-0.027090862567209224 0.0033164684955408318 -0.034310253000442381 0.11373225727882946 0.076332055044772237 0.1146667402084828 -0.04698092932544938 -0.015894139307924663 0.042714525246972224 0.091591513871308816 -0.025227770731772865 -0.025815603800794791 0.14980879110651354 0.2006646852172882 -0.021054379100112059 -0.010826065122585663 -0.042610974347159214 0.11558633896745883 -0.038407287241514543 -0.038572949533283968 0.15177030006230835 -0.02250487927749649 -0.032307030377768484 0.19488708163448643 0.14085564745593551 -0.026583835612638079 0.16180909663911736 -0.034868871276434586 0.14067508200033432 -0.022417234414289874 0.0027837651426268592
leaf_weight=499856.8186340332 3728050.973739624 281772.57171630859 16964.433212280273 22094.470947265625 32492.087860107422 23105.365524291992 133112.88458251953 118770.63368225098 11700.216247558594 43349.778137207031 83535.307998657227 18607.570663452148 30013.841613769531 28827.446441650391 81095.08854675293 31950.783584594727 21577.52165222168 19871.891571044922 330316.85176086426 18401.700302124023 14172.563690185547 40489.040588378906 13456.07209777832 10238.466018676758 114819.3140411377 13244.859970092773 20353.479064941406 14818.527954101562 45329.438262939453 16748.700119018555
leaf_count=2230 9687 1386 50 52 24 69 437 185 42 164 311 42 29 105 337 107 43 61 1398 49 62 193 46 29 540 50 92 47 174 54
internal_value=0 -0.00766771 -0.00388708 0.0171239 0.0556914 0.0132964 -0.000837141 -0.00739124 -0.0199429 0.000631499 0.0242408 0.0588562 0.10592 0.0459709 -0.00635903 0.0246267 -0.0150175 0.0417578 -0.0197437 0.0192458 -0.0294802 0.0146126 0.0833723 -0.0223519 -0.00111387 -0.0109077 0.0426638 -0.0222732 0.0177635 0.0586135
internal_weight=0 2.15109e+06 1.71066e+06 244518 77691.9 45199.8 166826 1.46614e+06 571705 894436 204334 120799 77448.9 47435 690102 150721 539381 41449.4 497931 99496.8 398435 68117.7 27628.6 440429 158656 148418 33598.3 560005 60148 33713.1
internal_count=18095 8408 6311 686 145 121 541 5625 2493 3132 651 340 176 147 2481 292 2189 104 2085 386 1699 301 108 2097 711 682 142 2451 221 104
is_linear=0
shrinkage=0.1


Tree=27
num_leaves=31
num_cat=0
split_feature=1 19 1 1 3 38 8 21 3 8 31 51 8 36 8 5 4 4 1 2 3 0 0 2 8 8 42 35 38 0
split_gain=15826 45389.6 28351.4 29076.7 27073.5 19251.8 19690 13204.8 12599 14663.5 17547.5 23074.9 30890.8 15307.7 16072.4 61531.6 45402.7 26945 16621.8 32049.4 16188.3 20794.5 17342.5 16859.2 19468.5 29077.8 26185.1 28514.7 23303.9 32297.3
